tree
version=v4
num_class=1
num_tree_per_iteration=1
label_index=0
max_feature_idx=7
objective=lambdarank
feature_names=Column_0 Column_1 Column_2 Column_3 Column_4 Column_5 Column_6 Column_7
feature_infos=[135:274] [0.23999999999999999:0.54000000000000004] [0:39] [0.051085966825740098:0.2498209460948477] [47.519999999999996:121.72999999999999] [135:274] none [0:1]
tree_sizes=1393 1491 1382 1392 1391 1488 1387 1385 1391 1492 1387 1389 1389 1392 1390 1399 1385 1285 1504 1502 1398 1500 1288 1397 1501 1398 1400 1287 1289 1398 1406 1409 1408 1402 1296 1413 1517 1297 1300 1522 1408 1295 1189 1512 1301 1411 1310 1304 1522 1412 1313 1418 1416 1525 1421 1309 1313 1421 1422 1323 1314 1313 1310 1420 1309 1311 1424 1425 1427 1433 1426 1538 1426 1426 1314 1313 1321 1322 1317 1432 1320 1324 1640 1322 1327 1438 1327 1324 1326 1323 1546 1210 1432 1437 1328 1212 1217 1431 1330 1443 1537 1324 1443 1545 1329 1330 1555 1652 1450 1448 1437 1447 1329 1436 1435 1444 1446 1560 1549 1329 1330 1443 1550 1551 1656 1450 1548 1339 1663 1671 1551 1338 1668 1339 1449 1558 1339 1570 1342 1441 1558 1559 1559 1560 1451 1558 1665 1565 1563 1564

Tree=0
num_leaves=12
num_cat=0
split_feature=2 0 2 2 1 2 2 2 2 3 2
split_gain=39.1262 4.86839 3.72895 2.8564 0.347371 0.293753 0.0998457 0.0659152 0.0362094 0.0350875 0.00217024
threshold=23.500000000000004 217.50000000000003 17.500000000000004 32.500000000000007 0.48500000000000004 11.500000000000002 19.500000000000004 6.5000000000000009 32.500000000000007 0.15890611012005368 3.5000000000000004
decision_type=2 2 2 2 2 2 2 2 2 2 2
left_child=2 3 5 4 -2 7 -4 10 -3 -7 -1
right_child=1 8 6 -5 -6 9 -8 -9 -10 -11 -12
leaf_value=-0.099267957740752782 -0.023485701650015275 0.091883358357055189 -0.0084734213657734602 0.059288280585503221 0.012287995487696069 -0.06691759610107316 -0.027913733283450384 -0.086857426915105201 0.099999999999999978 -0.079025172462987001 -0.096745804787401357
leaf_weight=1.7783865444362184 1.4738058038055881 2.846361443400383 1.2099813465029003 4.0080154966562986 1.2576482594013212 1.230871642008424 1.4543759599328039 2.1334719453006983 2.6564614064991474 1.1644921638071535 1.638962749391794
leaf_count=27 30 25 16 39 15 21 27 31 24 21 24
internal_value=-6.45426e-10 0.0609076 -0.0702743 0.0324163 -0.00701435 -0.087438 -0.0190852 -0.0937532 0.0958016 -0.0728036 -0.0980583
internal_weight=22.8528 12.2423 10.6105 6.73947 2.73145 7.94619 2.66436 5.55082 5.50282 2.39536 3.41735
internal_count=300 133 167 84 45 124 43 82 49 42 51
is_linear=0
shrinkage=0.05


Tree=1
num_leaves=13
num_cat=0
split_feature=2 4 4 2 0 4 4 2 3 2 2 1
split_gain=74.9533 39.8982 7.7668 7.45508 8.74258 3.01311 1.544 0.367455 0.0485627 0.0447648 0.0202856 0.00370145
threshold=24.500000000000004 74.940000000000012 59.580000000000005 15.500000000000002 217.50000000000003 109.55500000000001 70.560000000000016 9.5000000000000018 0.16904762169908247 12.500000000000002 3.5000000000000004 0.45000000000000001
decision_type=2 2 2 2 2 2 2 2 2 2 2 2
left_child=3 2 -2 7 6 -3 -5 10 -4 -9 -1 -12
right_child=1 5 8 4 -6 -7 -8 9 -10 -11 11 -13
leaf_value=-0.092661695736429864 -0.076312898429950371 0.056600804604039483 -0.003660116312711187 -0.086320528116755502 0.01890187161858423 0.088251680384975661 -0.042769424716305786 -0.078617583691900375 0.0034601531194633616 -0.069879309350639754 -0.087024237501506341 -0.089443256612988964
leaf_weight=4.2103940248489433 5.1540224701166144 14.066269963979723 4.9318382143974286 4.2611815556883794 4.9141441360115996 16.155831068754196 3.8956728354096413 3.0087029635906211 4.654940739274025 2.8577215149998665 3.2981086149811745 3.0380373224616051
leaf_count=27 24 36 19 21 21 27 21 20 21 20 23 20
internal_value=-1.12589e-10 0.0406264 -0.0268142 -0.061955 -0.0337814 0.0735204 -0.0655207 -0.084392 -0.00020281 -0.0743609 -0.0899716 -0.0881841
internal_weight=74.4469 44.9629 14.7408 29.484 13.071 30.2221 8.15685 16.413 9.58678 5.86642 10.5465 6.33615
internal_count=300 127 64 173 63 63 42 110 40 40 70 43
is_linear=0
shrinkage=0.05


Tree=2
num_leaves=12
num_cat=0
split_feature=2 4 2 0 2 4 2 2 3 2 1
split_gain=61.5146 21.3913 6.11996 5.99853 4.26513 5.1294 0.680872 0.129105 0.0455589 0.0281167 0.0107623
threshold=24.500000000000004 97.885000000000005 17.500000000000004 217.50000000000003 36.500000000000007 70.560000000000016 13.500000000000002 9.5000000000000018 0.15414901358995717 3.5000000000000004 0.45000000000000001
decision_type=2 2 2 2 2 2 2 2 2 2 2
left_child=2 4 6 -4 5 -2 7 9 -3 -1 -11
right_child=1 8 3 -5 -6 -7 -8 -9 -10 10 -12
leaf_value=-0.087756231978440999 -0.058450208623612124 0.083029690998081163 -0.058619437860193038 0.02408600167357805 0.040427123169499674 0.0099231230410816423 -0.057678830420395656 -0.073296511563781294 0.078021459198541268 -0.080176788632548152 -0.084511289280095547
leaf_weight=3.858367703855043 4.1010911166667965 9.2942464500665682 5.431458503007887 3.67631496489048 5.4306388944387427 8.2835776358842832 3.9105275869369498 3.550800994038581 8.8789433836936933 3.0126027092337608 2.7296592816710472
leaf_count=27 28 22 36 13 23 35 28 26 19 23 20
internal_value=3.11742e-10 0.0424158 -0.05833 -0.0252357 0.00348209 -0.0127182 -0.0759959 -0.0814425 0.0805828 -0.0844553 -0.0822373
internal_weight=62.1582 35.9885 26.1697 9.10777 17.8153 12.3847 17.062 13.1514 18.1732 9.60063 5.74226
internal_count=300 127 173 49 86 63 124 96 41 70 43
is_linear=0
shrinkage=0.05


Tree=3
num_leaves=12
num_cat=0
split_feature=2 4 2 1 2 1 2 7 2 2 1
split_gain=48.5184 15.2553 5.11476 4.36869 2.2533 1.28609 0.70949 0.610374 0.128373 0.0332748 0.00838171
threshold=24.500000000000004 74.940000000000012 17.500000000000004 0.39500000000000007 29.500000000000004 0.50500000000000012 13.500000000000002 1.0000000180025095e-35 9.5000000000000018 3.5000000000000004 0.45000000000000001
decision_type=2 2 2 2 2 2 2 2 2 2 2
left_child=2 5 6 -4 -3 -2 8 -6 9 -1 -11
right_child=1 4 3 -5 7 -7 -8 -9 -10 10 -12
leaf_value=-0.083800770696279919 -0.026457772396294849 0.040994297431375115 -0.063938295296221484 0.0095613450362387747 0.085565966282241973 0.0099794301685319116 -0.051503557962417006 0.065099249033720691 -0.068324683966173708 -0.075600089881224075 -0.079628589613443546
leaf_weight=3.5024413615465182 5.6636696904897708 7.1247205883264568 3.5626981630921346 4.6741657853126526 7.266430735588072 4.2306969463825226 3.5845440179109564 7.3050061911344528 3.2027389779686919 2.7491173781454563 2.4346675053238869
leaf_count=27 39 20 22 27 20 25 28 23 26 23 20
internal_value=-3.57871e-10 0.040574 -0.0540588 -0.0222295 0.0640382 -0.0108777 -0.0710022 0.0753055 -0.076881 -0.0800359 -0.0774922
internal_weight=55.3009 31.5905 23.7104 8.23686 21.6962 9.89437 15.4735 14.5714 11.889 8.68623 5.18378
internal_count=300 127 173 49 63 64 124 43 96 70 43
is_linear=0
shrinkage=0.05


Tree=4
num_leaves=12
num_cat=0
split_feature=2 4 2 0 2 4 2 3 2 3 1
split_gain=39.9634 13.7732 3.96839 3.66054 2.41291 3.94897 0.307709 0.137841 0.0400815 0.0181847 0.00513183
threshold=24.500000000000004 97.885000000000005 15.500000000000002 217.50000000000003 36.500000000000007 70.560000000000016 10.500000000000002 0.14171087242570407 4.5000000000000009 0.16094372564073176 0.45000000000000001
decision_type=2 2 2 2 2 2 2 2 2 2 2
left_child=2 4 6 7 5 -2 8 -4 -1 -3 -10
right_child=1 9 3 -5 -6 -7 -8 -9 10 -11 -12
leaf_value=-0.079877269038486076 -0.05459314464198825 0.074055383558398385 -0.044690511147478101 0.012011443549986976 0.035112861981118342 0.011703944709077211 -0.058694655035505985 -0.060642962043918981 -0.071243069774116541 0.070517419478630952 -0.074468337165593854
leaf_weight=3.5642070844769496 3.2864682525396365 7.6671110689640027 2.6264569684863073 3.6205713301897049 4.340002790093421 7.0956264510750771 3.7824819386005393 2.7953548654913902 2.3709463551640511 6.9009843319654465 2.5704408064484596
leaf_count=31 28 23 20 21 23 35 34 22 22 18 23
internal_value=-1.06508e-10 0.037912 -0.0520593 -0.0269186 0.00380504 -0.0092825 -0.0705595 -0.0529152 -0.0758359 0.0723794 -0.0729208
internal_weight=50.6207 29.2902 21.3305 9.04238 14.7221 10.3821 12.2881 5.42181 8.50559 14.5681 4.94139
internal_count=300 127 173 63 86 63 110 42 76 41 45
is_linear=0
shrinkage=0.05


Tree=5
num_leaves=13
num_cat=0
split_feature=2 4 2 4 2 2 2 3 2 2 0 2
split_gain=32.6905 10.8743 3.60946 2.8414 2.22391 1.0386 0.323395 0.263755 0.107397 0.10279 0.104157 0.0159849
threshold=24.500000000000004 97.885000000000005 13.500000000000002 74.940000000000012 32.500000000000007 32.500000000000007 36.500000000000007 0.14572468381482859 19.500000000000004 6.5000000000000009 176.50000000000003 3.5000000000000004
decision_type=2 2 2 2 2 2 2 2 2 2 2 2
left_child=2 4 9 8 7 -3 -6 -2 -4 11 -11 -1
right_child=1 5 3 -5 6 -7 -8 -9 -10 10 -12 -13
leaf_value=-0.077620011480821025 -0.007777774072327763 0.052759219005673486 -0.064081877454555611 -0.0026411146308977689 0.011212001856879809 0.080681958555256561 0.032466148416792545 -0.028166874003300948 -0.048746755301363041 -0.072986174230410067 -0.058036619909516966 -0.072038055931281125
leaf_weight=2.8646536804735678 3.4187633320689219 6.212096154689787 2.2900075465440732 5.3070776462554932 3.171897791326046 7.1785239726305008 4.107165239751339 2.9589773267507553 2.2769005224108696 2.1559616029262543 2.5352060869336128 2.3222953081130981
leaf_count=27 21 21 20 37 20 20 23 22 20 20 25 24
internal_value=-6.66659e-11 0.0357111 -0.0489008 -0.0275224 0.00431812 0.0677282 0.0232045 -0.0172374 -0.0564363 -0.0702703 -0.0649071 -0.0751209
internal_weight=46.7995 27.0474 19.7521 9.87399 13.6568 13.3906 7.27906 6.37774 4.56691 9.87812 4.69117 5.18695
internal_count=300 127 173 77 86 41 43 43 40 96 45 51
is_linear=0
shrinkage=0.05


Tree=6
num_leaves=12
num_cat=0
split_feature=2 0 2 4 1 2 2 0 2 2 1
split_gain=28.7929 10.0301 3.078 1.95684 1.92469 1.24402 0.446372 0.510318 0.146615 0.0477863 0.00831841
threshold=24.500000000000004 217.50000000000003 17.500000000000004 74.940000000000012 0.48500000000000004 32.500000000000007 10.500000000000002 217.50000000000003 34.500000000000007 4.5000000000000009 0.45000000000000001
decision_type=2 2 2 2 2 2 2 2 2 2 2
left_child=2 4 6 -4 -2 -3 9 -8 -6 -1 -11
right_child=1 5 3 -5 8 -7 7 -9 -10 10 -12
leaf_value=-0.074747899892655248 -0.023119699078714376 0.047456583808114752 -0.049120566507024982 0.0062514504627406197 0.011022643614884267 0.07798388779639584 -0.066298858025659033 -0.033789849786241617 0.025875219494450576 -0.064253361048030533 -0.068680251409735882
leaf_weight=3.0203446894884127 4.8761038929224032 6.0628805905580503 2.9606924951076499 3.4604610949754715 3.4218986853957176 7.4234701097011566 2.4574540518224239 2.3727688565850258 3.2298797070980072 2.0716039426624775 2.1756038255989552
leaf_count=31 39 24 27 22 20 24 25 23 20 22 23
internal_value=-5.96542e-10 0.0349878 -0.0472594 -0.0192797 0.000742388 0.0642601 -0.0621102 -0.0503293 0.0182346 -0.06994 -0.066521
internal_weight=43.5332 25.0142 18.5189 6.42115 11.5279 13.4864 12.0978 4.83022 6.65178 7.26755 4.24721
internal_count=300 127 173 49 79 48 124 48 40 76 45
is_linear=0
shrinkage=0.05


Tree=7
num_leaves=12
num_cat=0
split_feature=2 4 2 4 4 2 2 0 4 2 3
split_gain=25.2306 7.90614 3.99098 6.75319 0.743927 0.673476 0.384278 0.378811 0.23661 0.0448264 0.0126638
threshold=26.500000000000004 74.940000000000012 17.500000000000004 97.885000000000005 70.560000000000016 33.500000000000007 10.500000000000002 217.50000000000003 70.560000000000016 6.5000000000000009 0.14036794639855352
decision_type=2 2 2 2 2 2 2 2 2 2 2
left_child=2 4 6 8 -2 -3 9 -8 -4 10 -1
right_child=1 5 3 -5 -6 -7 7 -9 -10 -11 -12
leaf_value=-0.068082269726330441 -0.019369876498715084 0.05010295636482405 -0.059509016795321251 0.045712274724593466 0.012075470728449958 0.072536393959192258 -0.063309639949026636 -0.034222274346354851 -0.038700284955727235 -0.062171633826655637 -0.073466446900569915
leaf_weight=2.1584732532501238 3.5267432928085354 6.6597125604748708 2.2637496292591077 2.9991426691412926 4.0302615091204643 6.7228739559650421 2.2585220895707607 2.2190969660878181 3.4451006650924683 2.2912531718611717 2.210578192025423
leaf_count=26 32 29 23 13 27 26 25 23 26 25 25
internal_value=-3.99892e-10 0.0382853 -0.0403952 -0.015037 -0.00259961 0.0613726 -0.060221 -0.048894 -0.0469516 -0.0678359 -0.0708065
internal_weight=40.7855 20.9396 19.8459 8.70799 7.557 13.3826 11.1379 4.47762 5.70885 6.6603 4.36905
internal_count=300 114 186 62 59 55 124 48 49 76 51
is_linear=0
shrinkage=0.05


Tree=8
num_leaves=12
num_cat=0
split_feature=2 4 2 4 0 2 2 0 4 2 1
split_gain=22.2186 8.24189 1.82685 1.45464 0.981946 0.371587 0.348059 0.325219 0.177975 0.0474481 0.0126271
threshold=23.500000000000004 97.885000000000005 17.500000000000004 70.560000000000016 197.50000000000003 10.500000000000002 32.500000000000007 217.50000000000003 74.940000000000012 4.5000000000000009 0.45000000000000001
decision_type=2 2 2 2 2 2 2 2 2 2 2
left_child=2 3 5 -2 -4 9 -3 -7 -5 -1 -11
right_child=1 6 4 8 -6 7 -8 -9 -10 10 -12
leaf_value=-0.070763639496501607 -0.021898458866714526 0.055139492248040371 -0.044763330700235582 0.0085652226623796537 -0.00044661515416688974 -0.060411231962520573 0.073517832145738218 -0.032578224507504916 0.023214517457302873 -0.058946962001513441 -0.064805583138483322
leaf_weight=2.6028752289712411 3.7784596607089069 4.973341301083563 2.3527831733226767 4.3699432611465436 2.6666406095027924 2.0826046206057072 5.3448642045259476 2.1157795637845993 3.9450284913182259 1.7983295917510989 1.8824603818356989
leaf_count=31 36 21 24 32 19 25 20 23 24 22 23
internal_value=2.86332e-10 0.0318334 -0.046024 0.00382596 -0.0212194 -0.0579018 0.0646595 -0.0463848 0.0155156 -0.0655969 -0.0619432
internal_weight=37.9131 22.4116 15.5015 12.0934 5.01942 10.482 10.3182 4.19838 8.31497 6.28367 3.68079
internal_count=300 133 167 92 43 124 41 48 56 76 45
is_linear=0
shrinkage=0.05


Tree=9
num_leaves=13
num_cat=0
split_feature=2 0 2 3 1 2 2 3 4 0 2 3
split_gain=19.5752 7.01774 1.88798 1.56249 1.21138 0.679548 0.22028 0.120699 0.11947 0.0354663 0.0265355 0.0134593
threshold=24.500000000000004 217.50000000000003 15.500000000000002 0.12132622543610842 0.48500000000000004 32.500000000000007 9.5000000000000018 0.17573206852788417 74.940000000000012 176.50000000000003 3.5000000000000004 0.12477981818667541
decision_type=2 2 2 2 2 2 2 2 2 2 2 2
left_child=2 4 6 -4 -2 -3 9 -5 -8 -1 -11 -6
right_child=1 5 3 7 11 -7 8 -9 -10 10 -12 -13
leaf_value=-0.071079517891284499 -0.018987556856169624 0.046741574210189762 0.0079847181698775634 -0.0503251536403077 0.014337409461230247 0.072154395661558762 -0.057830521486271359 -0.033247586980940193 -0.038494042294850386 -0.067493558484275781 -0.058779107783879493 0.019198708354799515
leaf_weight=1.6514536924660186 4.1333171911537665 4.9624576121568662 2.5068878307938567 2.1296008266508579 3.3716870918869972 5.5981960073113441 1.6345827616751196 2.0122975781559944 1.5622923076152799 1.4510292708873751 2.1949512809514999 2.464603565633297
leaf_count=22 39 24 21 22 23 24 21 20 19 19 29 17
internal_value=1.4473e-10 0.0318098 -0.0431262 -0.0231711 0.00172292 0.0602129 -0.0587458 -0.0420282 -0.0483809 -0.0650007 -0.0622473 0.0163903
internal_weight=35.6734 20.5303 15.1431 6.64879 9.96961 10.5607 8.49431 4.1419 3.19688 5.29743 3.64598 5.83629
internal_count=300 127 173 63 79 48 110 42 40 70 48 40
is_linear=0
shrinkage=0.05


Tree=10
num_leaves=12
num_cat=0
split_feature=2 4 2 4 2 4 2 0 2 0 2
split_gain=16.6391 6.38369 1.85463 1.64811 1.20271 2.18465 0.35599 0.312374 0.287528 0.0341925 0.0252845
threshold=24.500000000000004 97.885000000000005 17.500000000000004 74.940000000000012 36.500000000000007 70.560000000000016 9.5000000000000018 217.50000000000003 32.500000000000007 176.50000000000003 4.5000000000000009
decision_type=2 2 2 2 2 2 2 2 2 2 2
left_child=2 4 6 -4 5 -2 9 -8 -3 -1 -11
right_child=1 8 3 -5 -6 -7 7 -9 -10 10 -12
leaf_value=-0.06972366361863909 -0.047128969400639625 0.052396094954535094 -0.047856239283687318 0.0091734979805951408 0.029971817142362592 0.011500663100716575 -0.056894501908704501 -0.029748457363979481 0.070425653093194554 -0.065532833963876588 -0.056838198047917177
leaf_weight=1.5320174545049647 2.3396224007010478 4.346567362546919 2.3239192217588416 2.7851025313138962 3.0751729160547256 4.9514439404010773 2.1899119913578033 2.0534549355506897 4.5013808831572533 1.5106526017189028 1.8727560639381406
leaf_count=22 28 21 27 22 23 35 29 25 20 22 26
internal_value=-1.53334e-10 0.0303737 -0.0409036 -0.0167674 0.00374769 -0.00731294 -0.0543675 -0.043758 0.0615686 -0.0635264 -0.0607203
internal_weight=33.482 19.2142 14.2678 5.10902 10.3662 7.29107 9.15879 4.24337 8.84795 4.91543 3.38341
internal_count=300 127 173 49 86 63 124 54 41 70 48
is_linear=0
shrinkage=0.05


Tree=11
num_leaves=12
num_cat=0
split_feature=2 4 2 4 2 4 4 2 3 2 2
split_gain=14.6724 5.61444 1.54846 1.92266 0.962019 1.62955 0.448387 0.280153 0.24614 0.0555031 0.0120592
threshold=24.500000000000004 97.885000000000005 10.500000000000002 97.885000000000005 36.500000000000007 70.560000000000016 70.560000000000016 32.500000000000007 0.14406520174189408 6.5000000000000009 3.5000000000000004
decision_type=2 2 2 2 2 2 2 2 2 2 2
left_child=2 4 9 6 5 -2 -4 -3 -8 10 -1
right_child=1 7 3 -5 -6 -7 8 -9 -10 -11 -12
leaf_value=-0.067734723151234744 -0.042114837643361387 0.050763497310104592 -0.057576993468877569 0.011475628863652252 0.027995277896012256 0.010288916266366315 -0.016830051320797772 0.069240943400531829 -0.043129065277328314 -0.054072428590063483 -0.06164396644538065
leaf_weight=1.8229324147105246 2.1639871448278445 4.0727578625082952 2.4889417923986894 2.4151459485292435 2.9359874501824379 4.7174343690276146 1.7885989770293238 4.1333014741539955 1.7702925093472002 1.786900646984577 1.4663983657956121
leaf_count=27 28 21 33 22 23 35 20 20 22 25 24
internal_value=-4.81334e-11 0.0295468 -0.0393329 -0.0262371 0.00403315 -0.00619039 -0.0412973 0.0600704 -0.0299119 -0.0611659 -0.0650194
internal_weight=31.5627 18.0235 13.5392 8.46298 9.81741 6.88142 6.04783 8.20606 3.55889 5.07623 3.28933
internal_count=300 127 173 97 86 63 75 41 42 76 51
is_linear=0
shrinkage=0.05


Tree=12
num_leaves=12
num_cat=0
split_feature=2 4 4 2 2 4 2 4 2 4 4
split_gain=12.4842 5.34084 1.44431 1.69354 0.835562 1.54765 0.324658 0.32558 0.272707 0.0288421 0.00198294
threshold=23.500000000000004 97.885000000000005 97.885000000000005 15.500000000000002 36.500000000000007 70.560000000000016 12.500000000000002 74.940000000000012 32.500000000000007 72.180000000000021 74.940000000000012
decision_type=2 2 2 2 2 2 2 2 2 2 2
left_child=2 4 6 -4 5 -2 9 -8 -3 -1 -7
right_child=1 8 3 -5 -6 10 7 -9 -10 -11 -12
leaf_value=-0.058156574705521019 -0.040581382286076405 0.049246543705994163 -0.041582750702408827 0.022232261983350814 0.026319832315475102 0.01048545977267077 -0.052373684641119633 -0.024537890677567353 0.068215506146579979 -0.067186245483690898 0.0084954591329835464
leaf_weight=1.9498539306223412 2.2241864539682883 3.7987933084368697 2.5012313276529303 1.7791864126920698 2.7948003560304642 2.6055643856525421 2.8355269096791744 1.6686959564685819 3.7801922410726547 1.6183375306427477 2.4094078540802002
leaf_count=34 29 21 35 14 23 23 39 19 20 26 17
internal_value=-3.19828e-10 0.0270274 -0.0385363 -0.0150576 0.00309825 -0.00586684 -0.050986 -0.0420613 0.0587077 -0.0622519 0.00952938
internal_weight=29.9658 17.6129 12.3528 4.28042 10.034 7.23916 8.07241 4.50422 7.57899 3.56819 5.01497
internal_count=300 133 167 49 92 69 118 58 41 60 40
is_linear=0
shrinkage=0.05


Tree=13
num_leaves=12
num_cat=0
split_feature=2 0 2 4 1 2 0 4 2 2 1
split_gain=12.0338 3.99558 1.79095 2.73373 1.08995 0.420631 0.332217 0.236326 0.173776 0.0419705 0.0103481
threshold=26.500000000000004 217.50000000000003 17.500000000000004 97.885000000000005 0.48500000000000004 9.5000000000000018 217.50000000000003 70.560000000000016 33.500000000000007 3.5000000000000004 0.45000000000000001
decision_type=2 2 2 2 2 2 2 2 2 2 2
left_child=2 4 5 7 -2 9 -7 -4 -3 -1 -11
right_child=1 8 3 -5 -6 6 -8 -9 -10 10 -12
leaf_value=-0.067052386283647777 -0.016769981372031114 0.052037044645632302 -0.052565712007688392 0.031875089818381636 0.021994685616591111 -0.052572625106566823 -0.022511902234582392 -0.027812034033351109 0.068005258329290261 -0.053464162253701424 -0.060070236583334213
leaf_weight=1.5988721288740655 2.9516605436801893 3.5718396902084351 1.6180836372077463 2.1696969270706177 4.7018779404461384 1.8124272115528586 1.8647238649427889 2.3860472030937672 3.2577713504433632 1.2579573616385462 1.1211370676755903
leaf_count=27 35 23 23 13 37 29 25 26 19 23 20
internal_value=1.32042e-10 0.0318529 -0.0333598 -0.0133235 0.00704472 -0.0495189 -0.0373285 -0.0378151 0.059654 -0.0607875 -0.0565772
internal_weight=28.3121 14.4831 13.8289 6.17383 7.65354 7.65512 3.67715 4.00413 6.82961 3.97797 2.37909
internal_count=300 114 186 62 72 124 54 49 42 70 43
is_linear=0
shrinkage=0.05


Tree=14
num_leaves=12
num_cat=0
split_feature=2 0 2 4 1 2 4 3 2 3 3
split_gain=10.6732 4.06819 1.31138 0.956139 0.819084 0.510528 0.317756 0.166251 0.0478484 0.0296399 0.00657877
threshold=24.500000000000004 217.50000000000003 10.500000000000002 97.885000000000005 0.48500000000000004 32.500000000000007 70.560000000000016 0.14406520174189408 4.5000000000000009 0.11599302023472406 0.16301867179536308
decision_type=2 2 2 2 2 2 2 2 2 2 2
left_child=2 4 8 6 -2 -3 -4 -8 -1 -6 -10
right_child=1 5 3 -5 9 -7 7 -9 10 -11 -12
leaf_value=-0.065541108107176435 -0.017501672018705318 0.040646133753426218 -0.050973021694923126 0.004400158317596525 0.011990302344910352 0.066972246070442443 -0.014074100125664207 -0.037362554562369567 -0.056723483415904802 0.020031756045857566 -0.051459614129123143
leaf_weight=1.6812240537256018 3.1343221478164178 3.6041059568524361 2.012270376086235 2.1264384314417839 2.55810546875 3.7656791359186172 1.5750932805240156 1.4924931190907953 1.474056161940098 2.0757236890494823 0.99372772499918927
leaf_count=31 39 24 33 22 22 24 20 22 28 18 17
internal_value=-4.56237e-10 0.0274863 -0.0366424 -0.0237495 0.00223953 0.0540978 -0.0355331 -0.0254048 -0.0590357 0.0155925 -0.0546038
internal_weight=26.4932 15.1379 11.3553 7.2063 7.76815 7.36979 5.07986 3.06759 4.14901 4.63383 2.46778
internal_count=300 127 173 97 79 48 75 42 76 40 45
is_linear=0
shrinkage=0.05


Tree=15
num_leaves=12
num_cat=0
split_feature=2 4 2 2 4 2 3 2 0 2 3
split_gain=9.55006 3.71048 1.36847 0.717619 0.710447 0.263438 0.249526 0.220668 0.150138 0.0447366 0.00489695
threshold=24.500000000000004 97.885000000000005 17.500000000000004 36.500000000000007 74.940000000000012 10.500000000000002 0.11162802970507471 32.500000000000007 217.50000000000003 4.5000000000000009 0.16301867179536308
decision_type=2 2 2 2 2 2 2 2 2 2 2
left_child=2 3 5 6 -4 9 -2 -3 -7 -1 -11
right_child=1 7 4 -5 -6 8 -8 -9 -10 10 -12
leaf_value=-0.064576074856212598 0.0068950683223622054 0.046813835896798994 -0.036519267384006994 0.027480771023407891 0.0059842061978516038 -0.050143584643445975 -0.013935728654280027 0.065784544227951075 -0.027265918452887523 -0.055490263713438959 -0.050797260720825327
leaf_weight=1.5493174362927695 2.5654855184257013 3.1472103223204604 1.7423476129770281 2.4469279646873474 2.2563533261418343 1.3528668805956843 3.2700509689748287 2.9884681925177574 1.5261464118957517 1.3740468118339779 0.93349378183484066
leaf_count=31 24 21 27 23 22 25 39 20 23 28 17
internal_value=-4.55429e-10 0.0265839 -0.0357061 0.00475246 -0.0125358 -0.0494611 -0.00477785 0.0560538 -0.0380163 -0.0580042 -0.0535918
internal_weight=25.1527 14.4181 10.7346 8.28246 3.9987 6.73587 5.83554 6.13568 2.87901 3.85686 2.30754
internal_count=300 127 173 86 49 124 63 41 48 76 45
is_linear=0
shrinkage=0.05


Tree=16
num_leaves=12
num_cat=0
split_feature=2 4 2 4 4 2 0 4 3 2 1
split_gain=8.90332 3.24733 1.14064 0.595853 0.562267 0.251913 0.13594 0.106485 0.0648131 0.0428805 0.0045634
threshold=24.500000000000004 97.885000000000005 17.500000000000004 74.940000000000012 70.560000000000016 10.500000000000002 217.50000000000003 74.940000000000012 0.16094372564073176 4.5000000000000009 0.45000000000000001
decision_type=2 2 2 2 2 2 2 2 2 2 2
left_child=2 4 5 -4 -2 9 -7 -6 -3 -1 -11
right_child=1 8 3 -5 7 6 -8 -9 -10 10 -12
leaf_value=-0.06372262905097334 -0.013818426080450752 0.060105980751357757 -0.0366531679257905 0.0030463578027685959 0.0080347626523446236 -0.048968745942466349 -0.026654730959916096 0.02206096281897053 0.049458906976920521 -0.050275320744772881 -0.054861273709232161
leaf_weight=1.4371635410934707 2.5223749205470067 3.0157912820577621 1.6481648907065394 2.2159213535487652 2.8235667459666729 1.2649642936885359 1.4824421592056749 2.5984078124165535 2.7172088362276554 1.0759719461202624 1.094025509431958
leaf_count=31 35 23 27 22 29 25 23 22 18 22 23
internal_value=-2.87677e-10 0.0263803 -0.0353092 -0.0138868 0.00568389 -0.0483356 -0.0369286 0.0147566 0.0550597 -0.0570239 -0.0525874
internal_weight=23.896 13.6773 10.2187 3.86409 7.94435 6.35457 2.74741 5.42197 5.733 3.60716 2.17
internal_count=300 127 173 49 86 124 48 51 41 76 45
is_linear=0
shrinkage=0.05


Tree=17
num_leaves=11
num_cat=0
split_feature=2 0 2 4 1 4 2 0 0 2
split_gain=7.87142 2.82572 1.41283 1.49215 0.679818 0.178674 0.109853 0.0653386 0.0255327 0.0107646
threshold=26.500000000000004 217.50000000000003 13.500000000000002 97.885000000000005 0.48500000000000004 70.560000000000016 6.5000000000000009 217.50000000000003 252.00000000000003 3.5000000000000004
decision_type=2 2 2 2 2 2 2 2 2 2
left_child=2 4 6 5 -2 -4 9 -8 -3 -1
right_child=1 8 3 -5 -6 -7 7 -9 -10 -11
leaf_value=-0.063596242940233055 -0.013522760652718933 0.059356899276425693 -0.047152518271155568 0.016117445742890306 0.01944852982385057 -0.025801656824899728 -0.052222713183099546 -0.035088249665340257 0.052325243690302739 -0.056473451690752512
leaf_weight=1.1866355109959861 2.5465786680579168 2.7486153766512871 1.5212699249386785 2.3620255216956139 4.0492175295948982 2.7533769086003304 1.2514640539884569 1.0017222501337526 2.4343795590102673 0.95922389067709435
leaf_count=27 35 22 29 22 37 39 27 18 20 24
internal_value=-2.23434e-10 0.0284276 -0.0303418 -0.0157765 0.00671861 -0.0334 -0.0523158 -0.0446051 0.0560542 -0.0604123
internal_weight=22.8145 11.7788 11.0357 6.63667 6.5958 4.27465 4.39905 2.25319 5.18299 2.14586
internal_count=300 114 186 90 72 68 96 45 42 51
is_linear=0
shrinkage=0.05


Tree=18
num_leaves=13
num_cat=0
split_feature=2 4 2 2 4 4 7 2 0 3 2 2
split_gain=7.18425 2.91008 0.829501 0.678744 0.969446 0.615696 0.166151 0.107492 0.0799175 0.0699698 0.0272861 0.0107821
threshold=23.500000000000004 97.885000000000005 13.500000000000002 36.500000000000007 70.560000000000016 97.885000000000005 1.0000000180025095e-35 6.5000000000000009 217.50000000000003 0.15414901358995717 29.500000000000004 3.5000000000000004
decision_type=2 2 2 2 2 2 2 2 2 2 2 2
left_child=2 3 7 4 -2 6 -4 11 -9 -3 -6 -1
right_child=1 9 5 -5 10 -7 -8 8 -10 -11 -12 -13
leaf_value=-0.062834787377921295 -0.036477591604939651 0.058996803437593205 -0.043122244148211857 0.028646150005310386 0.0046826913400079663 0.0054639226763605478 -0.019435045043847798 -0.052086904586829907 -0.032713109745059712 0.047144838135512193 0.012897154045987373 -0.055449989693749639
leaf_weight=1.1029817610979096 1.6569285169243793 2.6994267888367176 1.7908372543752193 2.160331916064024 1.9573852121829984 1.5380285903811453 1.2620137557387352 1.1904183700680735 0.96282044798135746 2.3117195069789886 2.090740442276001 0.89561488293111313
leaf_count=27 29 22 36 23 20 17 18 27 18 19 20 24
internal_value=-4.34116e-10 0.02375 -0.0349798 0.00477724 -0.00426119 -0.0203335 -0.0333302 -0.0511748 -0.0434239 0.0535293 0.00892523 -0.0595255
internal_weight=21.6192 12.8765 8.74272 7.86539 5.70505 4.59088 3.05285 4.15184 2.15324 5.01115 4.04813 1.9986
internal_count=300 133 167 92 69 71 54 96 45 41 40 51
is_linear=0
shrinkage=0.05


Tree=19
num_leaves=13
num_cat=0
split_feature=2 4 2 2 4 7 2 2 0 2 2 4
split_gain=6.62481 2.63054 0.859095 0.429962 0.801433 0.425008 0.295696 0.210822 0.0720645 0.058829 0.0319313 0.00719627
threshold=23.500000000000004 97.885000000000005 17.500000000000004 36.500000000000007 70.560000000000016 1.0000000180025095e-35 31.500000000000004 10.500000000000002 217.50000000000003 29.500000000000004 4.5000000000000009 97.885000000000005
decision_type=2 2 2 2 2 2 2 2 2 2 2 2
left_child=2 3 7 4 -2 -4 -3 10 -9 -6 -1 -12
right_child=1 6 5 -5 9 -7 -8 8 -10 -11 11 -13
leaf_value=-0.061756304539292588 -0.0325468556630467 0.039013038398856503 -0.031552473412571044 0.024563955996401918 0.0035700394802769711 0.0063580675181232242 0.06412729753397349 -0.044834430154220457 -0.027247312692513126 0.015970051787067546 -0.053806931676933893 -0.047424636174284433
leaf_weight=1.1636537881568094 1.5671886876225452 2.1544422209262848 1.4993583913892508 2.0304756462574005 1.8731879405677321 1.458382997661829 2.5703593976795673 1.0697556268423798 1.2787080854177473 1.954559877514839 1.0602768408134577 0.75699808076024044
leaf_count=31 29 19 27 23 20 16 22 25 23 20 29 16
internal_value=-2.09051e-10 0.0235101 -0.0344694 0.00495208 -0.00242918 -0.0128598 0.0526756 -0.0464625 -0.0352585 0.00990185 -0.0552893 -0.0511483
internal_weight=20.4373 12.1502 8.28713 7.42541 5.39494 2.95774 4.7248 5.32939 2.34846 3.82775 2.98093 1.81727
internal_count=300 133 167 92 69 43 41 124 48 40 76 45
is_linear=0
shrinkage=0.05


Tree=20
num_leaves=12
num_cat=0
split_feature=2 0 2 0 1 2 2 2 3 0 7
split_gain=6.07398 2.33932 0.891877 0.661122 0.467185 0.447724 0.207671 0.101346 0.0993091 0.024595 0.019608
threshold=24.500000000000004 217.50000000000003 17.500000000000004 217.50000000000003 0.48500000000000004 32.500000000000007 9.5000000000000018 34.500000000000007 0.18434715063484045 176.50000000000003 1.0000000180025095e-35
decision_type=2 2 2 2 2 2 2 2 2 2 2
left_child=2 4 6 -4 -2 -3 9 -6 -8 -1 -11
right_child=1 5 3 -5 7 -7 8 -9 -10 10 -12
leaf_value=-0.063657506453770912 -0.01328538013608347 0.03454811250361188 -0.030483619793346291 0.015372959907160541 0.0066592597310966345 0.064411811113216907 -0.02702779045912005 0.023460923003835208 -0.046986366158232699 -0.048216421756393797 -0.058936403309492361
leaf_weight=0.72532888501882764 2.4949782527983171 2.5166593641042709 1.9560009967535736 1.3140088468790052 1.8342792578041556 2.5035962834954262 1.4547350620850923 1.7574309669435022 1.0904479417949913 1.0178019283339379 0.73432590626180161
leaf_count=22 39 24 36 13 20 24 32 20 22 28 20
internal_value=-3.72957e-10 0.0241746 -0.0323788 -0.0120568 0.00333501 0.0494411 -0.0456096 0.0148803 -0.0355788 -0.0559146 -0.0527092
internal_weight=19.3996 11.1069 8.29265 3.27001 6.08669 5.02026 5.02264 3.59171 2.54518 2.47746 1.75213
internal_count=300 127 173 49 79 48 124 40 54 70 48
is_linear=0
shrinkage=0.05


Tree=21
num_leaves=13
num_cat=0
split_feature=2 4 2 4 2 2 4 3 2 2 0 2
split_gain=5.47534 2.18051 0.839716 0.539261 0.332645 0.24448 0.130892 0.0622994 0.0504655 0.0334499 0.0317705 0.0082017
threshold=24.500000000000004 97.885000000000005 10.500000000000002 97.885000000000005 32.500000000000007 31.500000000000004 70.560000000000016 0.14406520174189408 36.500000000000007 3.5000000000000004 176.50000000000003 7.5000000000000009
decision_type=2 2 2 2 2 2 2 2 2 2 2 2
left_child=2 4 9 6 10 -3 -4 -8 -6 -1 -2 -11
right_child=1 5 3 -5 8 -7 7 -9 -10 11 -12 -13
leaf_value=-0.062770423475204923 -0.011927146916464841 0.038860773639457828 -0.042878348397264544 0.0038576455165850055 0.0093162524524830464 0.063150899290596044 -0.015574034607488664 -0.032148480388770904 0.021544000217211243 -0.047994150600792165 -0.0016262697762391379 -0.055114257178151563
leaf_weight=0.89047377090901436 1.5435759443789705 1.9561557173728941 1.3874257551506164 1.6217878758907316 1.5620086863636973 2.2020455189049244 1.2018403466790917 1.0732336547225712 1.8351763822138307 1.0262138387188313 1.4533048048615453 0.66755520738661278
leaf_count=27 24 19 33 22 20 22 20 22 23 33 19 16
internal_value=6.47777e-11 0.0235394 -0.031568 -0.0201455 0.00521033 0.051724 -0.0307743 -0.0233928 0.0159217 -0.054925 -0.00693185 -0.0508004
internal_weight=18.4208 10.5523 7.86853 5.28429 6.39407 4.1582 3.6625 2.27507 3.39719 2.58424 2.99688 1.69377
internal_count=300 127 173 97 86 41 75 42 43 76 43 49
is_linear=0
shrinkage=0.05


Tree=22
num_leaves=11
num_cat=0
split_feature=2 4 2 4 7 2 2 2 0 2
split_gain=4.94651 2.1302 0.76418 0.357664 0.29119 0.228463 0.183769 0.105354 0.0936326 0.02536
threshold=23.500000000000004 97.885000000000005 17.500000000000004 70.560000000000016 1.0000000180025095e-35 31.500000000000004 9.5000000000000018 30.500000000000004 217.50000000000003 4.5000000000000009
decision_type=2 2 2 2 2 2 2 2 2 2
left_child=2 3 6 -2 -4 -3 9 -5 -8 -1
right_child=1 5 4 7 -6 -7 8 -9 -10 -11
leaf_value=-0.061585932833523704 -0.013143072578287618 0.038475323363362395 -0.027457255587007779 0.0028099698531974917 0.0056842481327506805 0.062688866308579033 -0.045719958168677098 0.018365258719650696 -0.025627623452128913 -0.050597697836128219
leaf_weight=0.92987730540335478 2.0030159261077625 1.8661061078310015 1.3266277313232422 1.8011087812483308 1.3245060294866562 2.0382055379450321 1.0941570987924936 2.7512477599084377 1.2335394676774738 1.2062384616583584
leaf_count=31 36 19 27 22 16 22 29 34 25 39
internal_value=-1.71335e-10 0.0218778 -0.0321625 0.00446392 -0.0108998 0.0511158 -0.0447908 0.0122109 -0.0350722 -0.055381
internal_weight=17.5746 10.4597 7.11495 6.55537 2.65113 3.90431 4.46381 4.55236 2.3277 2.13612
internal_count=300 133 167 92 43 41 124 56 54 70
is_linear=0
shrinkage=0.05


Tree=23
num_leaves=12
num_cat=0
split_feature=2 0 2 4 1 2 0 3 2 3 3
split_gain=4.47973 1.87369 1.00033 1.0923 0.458662 0.200357 0.0993264 0.086522 0.0316121 0.00828043 0.00407494
threshold=26.500000000000004 217.50000000000003 17.500000000000004 97.885000000000005 0.48500000000000004 10.500000000000002 241.00000000000003 0.16301867179536308 4.5000000000000009 0.14036794639855352 0.16441412023347124
decision_type=2 2 2 2 2 2 2 2 2 2 2
left_child=2 4 5 7 -2 8 -7 -4 -1 -3 -10
right_child=1 9 3 -5 -6 6 -8 -9 10 -11 -12
leaf_value=-0.061056059432151033 -0.012883359877086165 0.050330393382141458 -0.035589300810723756 0.026840430528502532 0.017813187100005911 -0.041834311821089008 -0.01908335239282842 -0.016620490778985451 -0.0511388584393071 0.055149795418795666 -0.045662565188585642
leaf_weight=0.86795282177627298 2.0267916154116374 1.7187431640923025 1.5307787209749228 1.4079480394721029 3.045326353982091 1.0760082108899949 0.86572293564677227 0.9899013154208659 0.84214059263467766 1.8512305803596971 0.56935452856123447
leaf_count=31 35 18 30 13 37 30 18 19 29 24 16
internal_value=-2.13921e-10 0.025079 -0.0265939 -0.00843604 0.00554701 -0.0434933 -0.0316908 -0.02814 -0.0535472 0.0528295 -0.0489299
internal_weight=16.7919 8.64209 8.14981 3.92863 5.07212 4.22118 1.94173 2.52068 2.27945 3.56997 1.4115
internal_count=300 114 186 62 72 124 48 49 76 42 45
is_linear=0
shrinkage=0.05


Tree=24
num_leaves=13
num_cat=0
split_feature=2 0 2 2 4 1 4 7 2 2 0 2
split_gain=4.03701 1.85408 0.656086 0.470785 0.447851 0.400663 0.701727 0.11622 0.0849579 0.0694868 0.047538 0.00832785
threshold=23.500000000000004 217.50000000000003 13.500000000000002 30.500000000000004 97.885000000000005 0.48500000000000004 70.560000000000016 1.0000000180025095e-35 6.5000000000000009 34.500000000000007 217.50000000000003 3.5000000000000004
decision_type=2 2 2 2 2 2 2 2 2 2 2 2
left_child=2 5 8 -3 7 6 -2 -4 11 -7 -10 -1
right_child=1 3 4 -5 -6 9 -8 -9 10 -11 -12 -13
leaf_value=-0.061239672984097798 -0.041196279951477642 0.025514081576673044 -0.038819507089268429 0.06049867035772527 0.008160530128524416 0.0064721379757298192 0.013733657776106046 -0.016391838022051502 -0.048511385844897087 0.021256350003372577 -0.030919653251577247 -0.053281371466317964
leaf_weight=0.7244457844644796 1.1704053021967393 1.5994456000626085 1.3277615597471599 2.4114898331463337 1.2315005809068678 1.7024020329117777 1.1553708352148533 1.0224428363144398 0.83045474532991626 1.490740120410919 0.71438081748783588 0.60179570224136114
leaf_count=27 25 19 36 30 17 22 17 18 27 20 18 24
internal_value=1.06344e-10 0.0206779 -0.0305383 0.0465478 -0.0162641 0.00187664 -0.0139089 -0.0290625 -0.0483457 0.0133742 -0.0403764 -0.0576285
internal_weight=15.9826 9.52985 6.45278 4.01094 3.5817 5.51892 2.32578 2.3502 2.87108 3.19314 1.54484 1.32624
internal_count=300 133 167 49 71 84 42 54 96 42 45 51
is_linear=0
shrinkage=0.05


Tree=25
num_leaves=12
num_cat=0
split_feature=2 4 2 3 2 2 2 2 3 2 1
split_gain=3.83016 1.63547 0.693549 0.529561 0.295332 0.198764 0.107848 0.046201 0.0419643 0.0262347 0.00196025
threshold=24.500000000000004 97.885000000000005 15.500000000000002 0.13768154975037997 32.500000000000007 31.500000000000004 10.500000000000002 36.500000000000007 0.14036794639855352 4.5000000000000009 0.45000000000000001
decision_type=2 2 2 2 2 2 2 2 2 2 2
left_child=2 4 6 -4 8 -3 9 -6 -2 -1 -11
right_child=1 5 3 -5 7 -7 -8 -9 -10 10 -12
leaf_value=-0.060145328805863013 -0.001220560385372626 0.037135270787963623 0.0066755125465069315 -0.033240559779821315 0.0090716468625184014 0.061828173843026427 -0.033567345738704492 0.021757757620021495 -0.014038825686197888 -0.046418530274813158 -0.050362560249286904
leaf_weight=0.75955186830833721 1.3067734781652673 1.6044796295464041 1.6730947494506838 1.6507450174540279 1.341465821489692 1.6561621595174072 1.139524547383189 1.5434131138026712 1.248558798804879 0.63307586312293984 0.62712835520505905
leaf_count=31 20 19 29 34 20 22 34 23 23 22 23
internal_value=6.15276e-10 0.0216769 -0.0290921 -0.0131483 0.00489452 0.0496774 -0.0458663 0.0158587 -0.00748368 -0.0528053 -0.0483812
internal_weight=15.184 8.70085 6.48312 3.32384 5.44021 3.26064 3.15928 2.88488 2.55533 2.01976 1.2602
internal_count=300 127 173 63 86 41 110 43 43 76 45
is_linear=0
shrinkage=0.05


Tree=26
num_leaves=12
num_cat=0
split_feature=2 0 2 4 1 2 2 3 0 2 1
split_gain=3.40379 1.50089 0.856293 0.870271 0.308842 0.183104 0.162201 0.12226 0.0782202 0.0199733 0.00536932
threshold=26.500000000000004 217.50000000000003 17.500000000000004 97.885000000000005 0.48500000000000004 32.500000000000007 9.5000000000000018 0.16301867179536308 217.50000000000003 3.5000000000000004 0.45000000000000001
decision_type=2 2 2 2 2 2 2 2 2 2 2
left_child=2 4 6 7 -2 -3 9 -4 -8 -1 -11
right_child=1 5 3 -5 -6 -7 8 -9 -10 10 -12
leaf_value=-0.060297639214901867 -0.010707352664884678 0.037301813439034902 -0.034833027758073641 0.026582855830710433 0.01611482960923253 0.062284449279934297 -0.042944038040924677 -0.011177413966119737 -0.022752623752784515 -0.045587952987092339 -0.052822020790150692
leaf_weight=0.63501311792060766 1.7947096303105352 1.3188985809683802 1.3817423097789294 1.2371730022132394 2.6696236710995436 1.6522434689104555 0.88696643523871888 0.90326949022710312 1.0444835703819988 0.54058242030441739 0.4881094298325479
leaf_count=27 35 18 30 13 37 24 29 19 25 23 20
internal_value=3.41779e-10 0.0236582 -0.0247157 -0.00719408 0.00533203 0.0511946 -0.0418818 -0.0254819 -0.032025 -0.0533248 -0.0490205
internal_weight=14.5528 7.43548 7.11734 3.52218 4.46433 2.97114 3.59515 2.28501 1.93145 1.6637 1.02869
internal_count=300 114 186 62 72 42 124 49 54 70 43
is_linear=0
shrinkage=0.05


Tree=27
num_leaves=11
num_cat=0
split_feature=2 4 2 3 4 2 2 4 2 0
split_gain=3.10053 1.4622 0.62649 0.402409 0.248437 0.172858 0.106265 0.0643113 0.0254638 0.0129136
threshold=24.500000000000004 97.885000000000005 15.500000000000002 0.13768154975037997 70.560000000000016 31.500000000000004 10.500000000000002 74.940000000000012 4.5000000000000009 241.00000000000003
decision_type=2 2 2 2 2 2 2 2 2 2
left_child=2 4 6 -4 -2 -3 8 -6 -1 -10
right_child=1 5 3 -5 7 -7 -8 -9 9 -11
leaf_value=-0.059247413380508311 -0.01223306243801129 0.036728716496522811 0.0060246211998372821 -0.030007252732867806 0.0054426134825813341 0.06117711258031662 -0.031513966038421166 0.019158305226521864 -0.05149397952801088 -0.040706682240981083
leaf_weight=0.66670159948989782 1.5771967470645902 1.4601639062166216 1.5780717041343453 1.5224416907876728 1.8644836843013766 1.4320408944040535 1.0553425168618558 1.577986095100641 0.65727570839226224 0.48007371742278337
leaf_count=31 35 19 29 34 29 22 34 22 29 16
internal_value=-1.30499e-10 0.0205164 -0.0272359 -0.0116681 0.00420053 0.048834 -0.0441165 0.0117297 -0.0514887 -0.0469407
internal_weight=13.8718 7.91187 5.95991 3.10051 5.01967 2.8922 2.85939 3.44247 1.80405 1.13735
internal_count=300 127 173 63 86 41 110 51 76 45
is_linear=0
shrinkage=0.05


Tree=28
num_leaves=11
num_cat=0
split_feature=2 4 4 2 2 2 3 0 2 2
split_gain=2.79425 2.12418 1.00704 0.466548 0.388962 0.162622 0.115465 0.0970345 0.0271765 0.00565133
threshold=17.500000000000004 59.580000000000005 97.885000000000005 26.500000000000004 29.500000000000004 10.500000000000002 0.17645820283896854 217.50000000000003 6.5000000000000009 3.5000000000000004
decision_type=2 2 2 2 2 2 2 2 2 2
left_child=5 -2 3 -3 -4 8 -5 -7 9 -1
right_child=1 2 4 6 -6 7 -8 -9 -10 -11
leaf_value=-0.059381773381296278 -0.042810583170252901 -0.014506888767372043 0.027235116765416748 0.011776989282477021 0.060938458119662746 -0.04272249442573748 0.030433945237434396 -0.017717389135498182 -0.043015300868575211 -0.051940551332629696
leaf_weight=0.55825334787368885 1.4548011999577273 1.537028593942521 1.7702125329524281 2.3521767947822814 1.6576996278017757 0.68601839197799541 1.2808977924287317 0.89304143004119396 0.66593465488404024 0.46994708571583033
leaf_count=27 38 33 22 36 27 25 20 23 25 24
internal_value=3.31748e-10 0.0130646 0.0225187 0.00858529 0.0435337 -0.0401246 0.0183548 -0.0285808 -0.0508842 -0.0559807
internal_weight=13.326 10.0528 8.59802 5.1701 3.42791 3.27319 3.63307 1.57906 1.69414 1.0282
internal_count=300 176 138 89 49 124 56 48 76 51
is_linear=0
shrinkage=0.05


Tree=29
num_leaves=12
num_cat=0
split_feature=2 0 2 4 1 2 2 3 0 2 2
split_gain=2.67769 1.24865 0.680761 0.670833 0.209374 0.145435 0.143561 0.0970932 0.07955 0.0245545 0.00593566
threshold=26.500000000000004 217.50000000000003 17.500000000000004 97.885000000000005 0.48500000000000004 32.500000000000007 10.500000000000002 0.16301867179536308 217.50000000000003 6.5000000000000009 3.5000000000000004
decision_type=2 2 2 2 2 2 2 2 2 2 2
left_child=2 4 6 7 -2 -3 9 -4 -8 10 -1
right_child=1 5 3 -5 -6 -7 8 -9 -10 -11 -12
leaf_value=-0.059011923762919562 -0.0088834840428973928 0.037166492786964891 -0.032922794368190733 0.024668057277430003 0.014523875584448731 0.061453351651912104 -0.0419308245358554 -0.010420776682506029 -0.01867312456958449 -0.042787241457679981 -0.051162310144014005
leaf_weight=0.52708204044029139 1.5927584972232582 1.1366264838725331 1.2161549385637052 1.0902130417525766 2.3871564641594887 1.3467752300202844 0.65545698348432757 0.79130472615361203 0.8373460378497839 0.6363171567209065 0.44344938406720757
leaf_count=27 35 18 30 13 37 24 25 19 23 25 24
internal_value=3.94583e-10 0.0225163 -0.0234827 -0.00690576 0.00515627 0.0503375 -0.040049 -0.0240529 -0.0288851 -0.0504206 -0.0554253
internal_weight=12.6606 6.46332 6.19732 3.09767 3.97991 2.4834 3.09965 2.00746 1.4928 1.60685 0.970531
internal_count=300 114 186 62 72 42 124 49 48 76 51
is_linear=0
shrinkage=0.05


Tree=30
num_leaves=12
num_cat=0
split_feature=2 0 2 4 1 2 2 4 0 7 2
split_gain=2.50128 1.18541 0.600712 0.46836 0.202962 0.138771 0.0949871 0.0843694 0.021668 0.0172143 0.00325764
threshold=26.500000000000004 217.50000000000003 15.500000000000002 97.885000000000005 0.48500000000000004 32.500000000000007 9.5000000000000018 70.560000000000016 176.50000000000003 1.0000000180025095e-35 12.500000000000002
decision_type=2 2 2 2 2 2 2 2 2 2 2
left_child=2 4 6 7 -2 -3 8 -4 -1 -10 -8
right_child=1 5 3 -5 -6 -7 10 -9 9 -11 -12
leaf_value=-0.061526379431509785 -0.0090547438939428803 0.036755825644686518 -0.037291606910850497 0.014911325210518909 0.014377073290583959 0.061033233775056622 -0.03428875804188055 -0.016634041900501866 -0.04166291649401932 -0.055387796691841067 -0.028931226541120188
leaf_weight=0.37589558446779869 1.5432952120900156 1.0854010060429575 0.74654733669012863 1.2270357422530649 2.3035739399492741 1.286043783649802 0.5750647624954579 1.4626844637095926 0.55345745570957661 0.38905940391123295 0.56007339106872678
leaf_count=22 35 18 24 19 37 24 20 33 28 20 20
internal_value=-1.59002e-10 0.022117 -0.0233506 -0.00985767 0.00497665 0.0499216 -0.0422478 -0.0236147 -0.0513764 -0.0473284 -0.0316454
internal_weight=12.1081 6.21831 5.88982 3.43627 3.84687 2.37144 2.45355 2.20923 1.31841 0.942517 1.13514
internal_count=300 114 186 76 72 42 110 57 70 48 40
is_linear=0
shrinkage=0.05


Tree=31
num_leaves=12
num_cat=0
split_feature=2 0 2 4 2 1 2 0 2 3 3
split_gain=2.23797 1.13007 0.481852 0.299491 0.261125 0.195374 0.0695461 0.0486595 0.0069667 0.00107794 8.25351e-05
threshold=24.500000000000004 217.50000000000003 13.500000000000002 74.940000000000012 30.500000000000004 0.48500000000000004 6.5000000000000009 217.50000000000003 3.5000000000000004 0.11162802970507471 0.14752423761896932
decision_type=2 2 2 2 2 2 2 2 2 2 2
left_child=2 5 6 10 -3 -2 8 -8 -1 -7 -4
right_child=1 4 3 -5 -6 9 7 -9 -10 -11 -12
leaf_value=-0.059449961106242122 -0.010725984454495373 0.025859525551660656 -0.032432058430058738 -2.3008498998786292e-05 0.057844629189704233 0.012751751065977313 -0.046375325900227887 -0.025427489017508766 -0.050368542930322828 0.010591907590170263 -0.03160743207168689
leaf_weight=0.46130614355206478 1.6690819598734381 1.0916609428822996 0.62211724324151896 1.8354235943406818 1.5358546599745748 1.2049530390650036 0.57606343878433086 0.53439175337553024 0.38948945282027125 1.1097062006592748 0.59234817232936621
leaf_count=27 39 18 20 37 30 20 27 18 24 20 20
internal_value=4.31647e-11 0.0191019 -0.0252013 -0.0127681 0.0445557 0.00231356 -0.0445359 -0.0362945 -0.0552925 0.0117163 -0.0320299
internal_weight=11.6224 6.61126 5.01114 3.04989 2.62752 3.98374 1.96125 1.11046 0.850796 2.31466 1.21447
internal_count=300 127 173 77 48 79 96 45 51 40 40
is_linear=0
shrinkage=0.05


Tree=32
num_leaves=12
num_cat=0
split_feature=2 0 2 4 1 2 2 0 3 2 0
split_gain=2.13016 1.01891 0.569929 0.476017 0.172762 0.130391 0.124826 0.0646666 0.0629453 0.0227347 0.00801448
threshold=26.500000000000004 217.50000000000003 17.500000000000004 97.885000000000005 0.48500000000000004 10.500000000000002 32.500000000000007 217.50000000000003 0.16301867179536308 4.5000000000000009 241.00000000000003
decision_type=2 2 2 2 2 2 2 2 2 2 2
left_child=2 4 5 8 -2 9 -3 -7 -4 -1 -11
right_child=1 6 3 -5 -6 7 -8 -9 -10 10 -12
leaf_value=-0.058403751176144686 -0.0081481702287167276 0.035999231539097433 -0.029050957507968263 0.02210962147030214 0.014175051192566641 -0.040438787792670156 0.060399274656221524 -0.018221577440532329 -0.0099211230076841333 -0.049097734213416393 -0.039379948610015952
leaf_weight=0.48480936535634123 1.4498660098761322 0.98556756973266635 1.0944613879546525 0.95607034489512432 2.1548644155263901 0.57163665443658807 1.1196027565747497 0.76695160381495953 0.70830361824482668 0.48810716904699802 0.37530426727607846
leaf_count=31 35 18 30 13 37 25 24 23 19 29 16
internal_value=-2.73186e-10 0.0213374 -0.0223728 -0.00640994 0.00519638 -0.0387636 0.048976 -0.0277093 -0.0215349 -0.049739 -0.0448736
internal_weight=11.1555 5.7099 5.44564 2.75884 3.60473 2.68681 2.10517 1.33859 1.80277 1.34822 0.863411
internal_count=300 114 186 62 72 124 42 48 49 76 45
is_linear=0
shrinkage=0.05


Tree=33
num_leaves=12
num_cat=0
split_feature=2 4 2 4 3 2 0 2 4 2 0
split_gain=1.93199 0.988353 0.438244 0.287189 0.280495 0.235847 0.121189 0.113798 0.0930449 0.0216099 0.00664164
threshold=24.500000000000004 97.885000000000005 10.500000000000002 74.940000000000012 0.13768154975037997 36.500000000000007 146.00000000000003 31.500000000000004 59.580000000000005 4.5000000000000009 241.00000000000003
decision_type=2 2 2 2 2 2 2 2 2 2 2
left_child=2 5 9 8 -5 6 -2 -3 -4 -1 -11
right_child=1 7 3 4 -6 -7 -8 -9 -10 10 -12
leaf_value=-0.058013442134626628 -0.018155418542076838 0.035894133991517752 -0.048694626422120676 0.017052906966848115 -0.020631775160672612 0.02365763867985763 0.0036896149362715376 0.059600276756460603 -0.022001304128499571 -0.048402655652241548 -0.039329625677286449
leaf_weight=0.45648555760271825 0.92976606078445945 1.0868610814213755 0.53693508682772539 0.94276003446429957 1.0368433808907864 1.1289237160235641 2.0018546041101217 0.94761904142796982 0.83280706778168678 0.46182349883019924 0.35810531489551067
leaf_count=31 26 19 22 19 27 23 37 22 29 29 16
internal_value=-1.11676e-10 0.0184911 -0.0243644 -0.0148637 -0.00268494 0.0042392 -0.00323856 0.046936 -0.032465 -0.0492943 -0.04444
internal_weight=10.7208 6.09502 4.62576 3.34935 1.9796 4.06054 2.93162 2.03448 1.36974 1.27641 0.819929
internal_count=300 127 173 97 46 86 63 41 51 76 45
is_linear=0
shrinkage=0.05


Tree=34
num_leaves=11
num_cat=0
split_feature=2 4 4 2 2 2 3 3 0 7
split_gain=1.8646 1.51882 0.567406 0.316482 0.294223 0.112712 0.104229 0.0489371 0.0160586 0.0150468
threshold=17.500000000000004 59.580000000000005 97.885000000000005 29.500000000000004 26.500000000000004 9.5000000000000018 0.17645820283896854 0.18434715063484045 176.50000000000003 1.0000000180025095e-35
decision_type=2 2 2 2 2 2 2 2 2 2
left_child=5 -2 4 -4 -3 8 -6 -7 -1 -10
right_child=1 2 3 -5 6 7 -8 -9 9 -11
leaf_value=-0.060510707933878721 -0.041522934607643225 -0.010630944559055718 0.023813813755893171 0.059523178206761909 0.011346864050318622 -0.020831315020853253 0.031031232194981734 -0.039594248044188839 -0.040683973891373973 -0.055115459197769182
leaf_weight=0.29117610887624346 1.1355759203433988 1.2453666161745784 1.3848471511155369 1.124145461246371 1.8810844700783493 0.81195286707952596 1.0466808807104824 0.60755120031535625 0.43608494778163731 0.30831675883382559
leaf_count=22 38 33 22 27 36 32 20 22 28 20
internal_value=2.02567e-10 0.0119375 0.0210227 0.0398133 0.00972526 -0.0380124 0.0183841 -0.0288619 -0.0505553 -0.0466612
internal_weight=10.2728 7.8177 6.68212 2.50899 4.17313 2.45508 2.92777 1.4195 1.03558 0.744402
internal_count=300 176 138 49 89 124 56 54 70 48
is_linear=0
shrinkage=0.05


Tree=35
num_leaves=12
num_cat=0
split_feature=2 0 2 4 1 2 3 2 0 3 2
split_gain=1.66902 0.889311 0.469967 0.339907 0.150062 0.0990742 0.0920915 0.0561877 0.0358014 0.0346016 0.0063594
threshold=26.500000000000004 217.50000000000003 13.500000000000002 97.885000000000005 0.48500000000000004 32.500000000000007 0.18434715063484045 6.5000000000000009 217.50000000000003 0.13671900997781414 3.5000000000000004
decision_type=2 2 2 2 2 2 2 2 2 2 2
left_child=2 4 7 6 -2 -3 9 10 -9 -4 -1
right_child=1 5 3 -5 -6 -7 -8 8 -10 -11 -12
leaf_value=-0.058791272885942249 -0.0084926480736309436 0.036243716404571587 -0.022475829141664148 0.01218883570748785 0.013422343981659949 0.059788312155335172 -0.0053865949369565789 -0.044919959829103823 -0.025186423968476254 -0.038042782363924763 -0.049027067818333908
leaf_weight=0.36135206464678027 1.3162050163373353 0.86290946975350358 0.9157068268395967 1.1193930217996237 1.9215177837759254 0.92657508794218302 0.60132909938693035 0.46939553460106254 0.45036695897579193 0.58502743672579527 0.30965639185160398
leaf_count=27 35 18 29 22 37 24 19 27 18 20 24
internal_value=-1.43725e-10 0.0201477 -0.0210478 -0.0100676 0.00451342 0.0484348 -0.0219196 -0.0432836 -0.0352573 -0.0285443 -0.0542853
internal_weight=9.83943 5.02721 4.81223 3.22146 3.23772 1.78948 2.10206 1.59077 0.919762 1.50073 0.671008
internal_count=300 114 186 90 72 42 68 96 45 49 51
is_linear=0
shrinkage=0.05


Tree=36
num_leaves=13
num_cat=0
split_feature=2 4 2 3 2 2 0 2 2 2 1 2
split_gain=1.59077 0.858921 0.338357 0.256943 0.178246 0.125912 0.12586 0.0711235 0.029399 0.0147372 0.0073731 0.000456466
threshold=23.500000000000004 97.885000000000005 15.500000000000002 0.13768154975037997 36.500000000000007 30.500000000000004 146.00000000000003 9.5000000000000018 29.500000000000004 3.5000000000000004 0.45000000000000001 12.500000000000002
decision_type=2 2 2 2 2 2 2 2 2 2 2 2
left_child=2 4 7 -4 6 -3 -2 9 -8 -1 -11 -9
right_child=1 5 3 -5 -6 -7 8 11 -10 10 -12 -13
leaf_value=-0.058389432522325514 -0.017734550717754233 0.032049624166556732 0.0084886477774350107 -0.027199257328071959 0.022111791317031559 0.058975933719139333 0.011009629946446942 -0.031512015878138178 -0.0012404336570588585 -0.04004829706113603 -0.051324516677533905 -0.029265008105453152
leaf_weight=0.33954700338654242 0.91640143096447069 0.82861884590238311 0.93930668663233552 1.0891768354922531 0.99512368813157071 0.91203274857252836 0.95266773179173458 0.44679186819121242 1.0079911258071659 0.3121446946170181 0.2706669217441231 0.45739744137972593
leaf_count=27 28 16 24 33 23 25 20 20 21 23 20 20
internal_value=-6.95351e-11 0.0169852 -0.02473 -0.0106737 0.00387124 0.0461579 -0.00243783 -0.0403404 0.00471177 -0.0501092 -0.0452852 -0.0303753
internal_weight=9.46787 5.61284 3.85503 2.02848 3.87218 1.74065 2.87706 1.82655 1.96066 0.922359 0.582812 0.904189
internal_count=300 133 167 57 92 41 69 110 41 70 43 40
is_linear=0
shrinkage=0.05


Tree=37
num_leaves=11
num_cat=0
split_feature=2 4 2 4 3 2 4 2 0 2
split_gain=1.41038 0.806696 0.416621 0.318411 0.206209 0.155004 0.117015 0.0535256 0.0361271 0.00543168
threshold=26.500000000000004 74.940000000000012 13.500000000000002 97.885000000000005 0.17645820283896854 33.500000000000007 70.560000000000016 6.5000000000000009 217.50000000000003 3.5000000000000004
decision_type=2 2 2 2 2 2 2 2 2 2
left_child=2 4 7 6 -2 -3 -4 9 -9 -1
right_child=1 5 3 -5 -6 -7 -8 8 -10 -11
leaf_value=-0.057948556712558136 -0.016632662464636475 0.028481768093997269 -0.038727247314055663 0.012724348010974239 0.013470155932994941 0.054276281140615223 -0.012858301034412961 -0.044228559158571115 -0.023622627861221941 -0.048386624816335363
leaf_weight=0.31903248443268217 1.1624902701005342 1.3280486511066558 0.64473372581414956 1.0578696224838493 1.1141214156523345 1.0373214827850459 1.3576678885146973 0.4271180359646678 0.42373679578304291 0.27788205537945032
leaf_count=27 32 29 29 22 27 26 39 27 18 24
internal_value=5.10827e-10 0.019345 -0.0199198 -0.00946497 -0.00190104 0.0397938 -0.0211876 -0.042019 -0.0339665 -0.0534972
internal_weight=9.15002 4.64198 4.50804 3.06027 2.27661 2.36537 2.0024 1.44777 0.850855 0.596915
internal_count=300 114 186 90 59 55 68 96 45 51
is_linear=0
shrinkage=0.05


Tree=38
num_leaves=11
num_cat=0
split_feature=2 4 4 2 2 2 3 0 2 2
split_gain=1.32652 1.32255 0.449189 0.247532 0.212869 0.119679 0.0788508 0.0542624 0.0181191 0.00615054
threshold=17.500000000000004 59.580000000000005 97.885000000000005 29.500000000000004 26.500000000000004 10.500000000000002 0.17645820283896854 241.00000000000003 4.5000000000000009 7.5000000000000009
decision_type=2 2 2 2 2 2 2 2 2 2
left_child=5 -2 4 -4 -3 8 -6 -7 -1 -10
right_child=1 2 3 -5 6 7 -8 -9 9 -11
leaf_value=-0.056960385104420676 -0.041670359775411156 -0.0084805909065885348 0.023857933506132693 0.058735515711121435 0.011006542252220142 -0.034254538066308016 0.02944935478662929 -0.012088592003686003 -0.038091748351758159 -0.047921200944859937
leaf_weight=0.33870664471760425 1.0215225126594303 1.1337355980649593 1.2037739325314762 0.88106026500463475 1.620309458114207 0.57459317217580952 0.90227741561830033 0.53148597199469805 0.34252956858836114 0.29725614236667752
leaf_count=31 38 33 22 27 36 30 20 18 29 16
internal_value=-2.08889e-10 0.0107491 0.0200761 0.0385974 0.00951523 -0.0348717 0.0176032 -0.0236035 -0.0476092 -0.0426587
internal_weight=8.84725 6.76268 5.74116 2.08483 3.65632 2.08457 2.52259 1.10608 0.978492 0.639786
internal_count=300 176 138 49 89 124 56 48 76 45
is_linear=0
shrinkage=0.05


Tree=39
num_leaves=13
num_cat=0
split_feature=2 0 2 0 4 2 2 0 2 0 7 3
split_gain=1.33559 0.696756 0.374551 0.29423 0.100774 0.0933806 0.0748061 0.0392446 0.0182376 0.0131624 0.0125921 1.26014e-05
threshold=26.500000000000004 217.50000000000003 17.500000000000004 217.50000000000003 70.560000000000016 9.5000000000000018 32.500000000000007 217.50000000000003 21.500000000000004 176.50000000000003 1.0000000180025095e-35 0.14752423761896932
decision_type=2 2 2 2 2 2 2 2 2 2 2 2
left_child=2 4 5 8 -2 9 -3 -7 -4 -1 -11 -6
right_child=1 6 3 -5 11 7 -8 -9 -10 10 -12 -13
leaf_value=-0.059634912107673743 -0.0081577917054021388 0.036377706011031317 -0.027961635684397135 0.014405992341499583 0.011981246775047142 -0.037308370393249343 0.059003547324830014 -0.018953475021012536 -0.015807850279406576 -0.0390019114442351 -0.054049557118074736 0.011719504485352352
leaf_weight=0.21764790988527227 0.94702112860977683 0.73106592427939154 0.65035341214388631 0.98698614723980416 1.0472397170960901 0.51756371464580275 0.73019452951848507 0.66589528601616621 0.58749200031161308 0.33779998007230461 0.23626755923032761 0.81983938254415978
leaf_count=22 32 18 22 19 21 29 24 25 21 28 20 19
internal_value=-4.36238e-10 0.0196728 -0.0200258 -0.00595704 0.00512766 -0.0358727 0.0476839 -0.0269806 -0.0221933 -0.0491647 -0.045195 0.0118663
internal_weight=8.47537 4.27536 4.20001 2.22483 2.8141 1.97517 1.46126 1.18346 1.23785 0.791715 0.574068 1.86708
internal_count=300 114 186 62 72 124 42 54 43 70 48 40
is_linear=0
shrinkage=0.05


Tree=40
num_leaves=12
num_cat=0
split_feature=2 0 2 4 3 4 2 2 3 2 2
split_gain=1.35542 0.611127 0.320078 0.39826 0.124503 0.0825403 0.0921956 0.072661 0.0714588 0.0181141 0.00448581
threshold=26.500000000000004 217.50000000000003 10.500000000000002 109.55500000000001 0.17645820283896854 70.560000000000016 20.500000000000004 32.500000000000007 0.10792459420703626 4.5000000000000009 7.5000000000000009
decision_type=2 2 2 2 2 2 2 2 2 2 2
left_child=2 4 9 5 8 -4 -7 -3 -2 -1 -11
right_child=1 7 3 -5 -6 6 -8 -9 -10 10 -12
leaf_value=-0.056979851771450207 0.0071894401185470039 0.035896634106963803 -0.037278387650311481 0.019368854957663689 0.019318951912721857 -0.0077979639941490476 -0.031136727034749085 0.058814181270658156 -0.013688635079708071 -0.037819855393804933 -0.046620103874719425
leaf_weight=0.30361123988404859 0.91388559248298429 0.70110628101974704 0.69664408615790385 0.7286961656063794 1.1356507781893013 1.0770052727311847 0.69699637033045281 0.68259594216942787 0.74308348353952169 0.31121090543456376 0.27082135621458292
leaf_count=31 23 18 36 17 29 39 18 24 20 29 16
internal_value=3.94566e-11 0.02003 -0.0204779 -0.0131141 0.00656663 -0.0226946 -0.0169676 0.0472021 -0.00217353 -0.0470792 -0.0419146
internal_weight=8.26131 4.17632 4.08499 3.19934 2.79262 2.47065 1.774 1.3837 1.65697 0.885644 0.582032
internal_count=300 114 186 110 72 93 57 42 43 76 45
is_linear=0
shrinkage=0.05


Tree=41
num_leaves=11
num_cat=0
split_feature=2 4 4 2 2 2 3 0 2 1
split_gain=1.19128 1.0821 0.353602 0.216159 0.170182 0.0815064 0.0684518 0.0409535 0.0121801 0.00516771
threshold=17.500000000000004 59.580000000000005 97.885000000000005 29.500000000000004 26.500000000000004 9.5000000000000018 0.17645820283896854 217.50000000000003 3.5000000000000004 0.45000000000000001
decision_type=2 2 2 2 2 2 2 2 2 2
left_child=5 -2 4 -4 -3 8 -6 -7 -1 -10
right_child=1 2 3 -5 6 7 -8 -9 9 -11
leaf_value=-0.057325438467459799 -0.039922995847626791 -0.0071935260205733074 0.023042596006000261 0.058144975478108908 0.010928990071572468 -0.03800911515757105 0.028915803807485846 -0.018650423679599334 -0.0387369789001758 -0.049408972300714456
leaf_weight=0.25552938133478154 0.89791333163157094 1.0155834141187372 1.0806451383978126 0.73814079537987698 1.4743139557540419 0.47743957745842613 0.82491373270750035 0.63864019978791475 0.24441744084469974 0.21167296369094402
leaf_count=27 38 33 22 27 36 29 20 25 23 20
internal_value=1.58865e-10 0.0107159 0.0195731 0.0372886 0.0098528 -0.0353629 0.0173823 -0.0269317 -0.0485862 -0.0436899
internal_weight=7.85921 6.03151 5.1336 1.81879 3.31481 1.8277 2.29923 1.11608 0.71162 0.45609
internal_count=300 176 138 49 89 124 56 54 70 43
is_linear=0
shrinkage=0.05


Tree=42
num_leaves=10
num_cat=0
split_feature=2 4 4 2 2 2 0 0 2
split_gain=1.10066 0.957783 0.340343 0.212499 0.137123 0.0807457 0.0528768 0.0369477 0.0118957
threshold=17.500000000000004 59.580000000000005 97.885000000000005 28.500000000000004 26.500000000000004 9.5000000000000018 146.00000000000003 217.50000000000003 4.5000000000000009
decision_type=2 2 2 2 2 2 2 2 2
left_child=5 -2 4 -4 -3 8 -6 -7 -1
right_child=1 2 3 -5 6 7 -8 -9 -10
leaf_value=-0.056275903486060055 -0.038187598878218453 -0.0063790997631913253 0.018160780421032606 0.053180207648062298 0.0066335975379007463 -0.036940164820158473 0.022441028053641569 -0.01817880351200243 -0.042777612781672331
leaf_weight=0.272238025558181 0.85902233235537995 0.96900292392820153 0.81347073055803754 0.92665061354637146 0.87624071724712882 0.4567498844116924 1.3351111579686401 0.6167953098192811 0.40759181359317154
leaf_count=31 38 33 18 31 24 29 32 25 39
internal_value=2.14654e-10 0.0105271 0.0190317 0.0368093 0.00930479 -0.0346995 0.0161774 -0.026161 -0.048183
internal_weight=7.53287 5.7795 4.92048 1.74012 3.18035 1.75338 2.21135 1.07355 0.67983
internal_count=300 176 138 49 89 124 56 54 70
is_linear=0
shrinkage=0.05


Tree=43
num_leaves=13
num_cat=0
split_feature=2 4 2 4 2 3 2 0 2 3 2 2
split_gain=1.08073 0.596976 0.218773 0.165774 0.131378 0.119551 0.072268 0.05681 0.0280555 0.025864 0.0157329 0.00377985
threshold=23.500000000000004 97.885000000000005 10.500000000000002 74.940000000000012 36.500000000000007 0.15414901358995717 30.500000000000004 146.00000000000003 29.500000000000004 0.16791734914506373 6.5000000000000009 3.5000000000000004
decision_type=2 2 2 2 2 2 2 2 2 2 2 2
left_child=2 4 10 9 7 -5 -3 -2 -9 -4 11 -1
right_child=1 6 3 5 -6 -7 -8 8 -10 -11 -12 -13
leaf_value=-0.056739254620261428 -0.013411129453394337 0.033535140198973752 -0.040329838142990265 0.010671388742853139 0.021964812685743969 -0.019167282875188124 0.057689176575985004 0.01045861615562982 -0.0030493894832234352 -0.0224742066597 -0.037937010450254639 -0.047462956325290982
leaf_weight=0.23067609942518208 0.73096787836402732 0.63629280962049939 0.47683315095491741 0.66868043877184369 0.77019044570624817 0.67408866807818413 0.60328712873160839 0.74811871629208304 0.79062865395098925 0.35290717566385865 0.33438439969904721 0.20959704625420272
leaf_count=27 28 16 28 19 23 25 25 20 21 19 25 24
internal_value=4.99384e-11 0.016046 -0.0232999 -0.0151652 0.00412096 -0.00430804 0.0452906 -0.00193405 0.00351803 -0.0327354 -0.0461133 -0.0523232
internal_weight=7.22665 4.27949 2.94717 2.17251 3.03991 1.34277 1.23958 2.26972 1.53875 0.82974 0.774658 0.440273
internal_count=300 133 167 91 92 44 41 69 41 47 76 51
is_linear=0
shrinkage=0.05


Tree=44
num_leaves=11
num_cat=0
split_feature=2 4 4 2 2 3 2 0 0 2
split_gain=1.04074 0.771759 0.295175 0.192789 0.128013 0.0636295 0.061597 0.0324616 0.0180446 0.0039235
threshold=17.500000000000004 59.580000000000005 97.885000000000005 29.500000000000004 26.500000000000004 0.099722713878356975 6.5000000000000009 241.00000000000003 176.50000000000003 3.5000000000000004
decision_type=2 2 2 2 2 2 2 2 2 2
left_child=6 -2 4 -4 -3 -6 9 8 -8 -1
right_child=1 2 3 -5 5 -7 7 -9 -10 -11
leaf_value=-0.056412798811754851 -0.035460152829907408 -0.0064914228890520414 0.021947475383680467 0.057616451824981964 0.0038165313114873153 0.022283812397667205 -0.04623550847768923 -0.02086490032209087 -0.029176902192057198 -0.04670910356113217
leaf_weight=0.21866552112624038 0.77804293809458602 0.91204772610217366 0.97889439482241847 0.61798375518992543 0.7079742839559916 1.3671796107664702 0.29880350525490917 0.57057074829936028 0.32217551884241402 0.19894230179488659
leaf_count=27 38 33 22 27 20 36 25 26 22 24
internal_value=-7.34768e-10 0.0105832 0.018398 0.0357512 0.00912141 0.0159834 -0.0352658 -0.0294745 -0.0373852 -0.0517901
internal_weight=6.97128 5.36212 4.58408 1.59688 2.9872 2.07515 1.60916 1.19155 0.620979 0.417608
internal_count=300 176 138 49 89 56 124 73 47 51
is_linear=0
shrinkage=0.05


Tree=45
num_leaves=12
num_cat=0
split_feature=2 4 4 2 2 2 3 3 0 3 2
split_gain=0.982988 0.668612 0.283048 0.19038 0.125873 0.0574979 0.0305974 0.0305045 0.0380185 0.0172926 0.00377935
threshold=17.500000000000004 59.580000000000005 97.885000000000005 28.500000000000004 30.500000000000004 6.5000000000000009 0.13768154975037997 0.20441208312153689 217.50000000000003 0.17645820283896854 3.5000000000000004
decision_type=2 2 2 2 2 2 2 2 2 2 2
left_child=5 -2 4 -4 6 10 -3 8 -7 -6 -1
right_child=1 2 3 -5 9 7 -8 -9 -10 -11 -12
leaf_value=-0.05606780488190477 -0.033406446027862156 0.004105782042537945 0.016988231461238214 0.052272466657650077 0.01423289127729423 -0.037083520927868978 -0.010751285710980898 -0.042028969425710661 -0.015033868020380396 0.025251141721443899 -0.046317099262144529
leaf_weight=0.20787629252299655 0.7439485192298888 0.87144511239603184 0.74020183924585559 0.7906452058814466 0.81387920398265101 0.33161388360895194 0.5753337861970067 0.33507440309040248 0.47625542059540749 0.63311228062957525 0.19039837445598096
leaf_count=27 38 26 18 31 25 29 21 20 24 17 24
internal_value=-5.93807e-10 0.0104505 0.0178245 0.0352117 0.00862648 -0.0350463 -0.00180236 -0.0293455 -0.0240848 0.0190538 -0.0514064
internal_weight=6.70978 5.16857 4.42462 1.53085 2.89377 1.54122 1.44678 1.14294 0.807869 1.44699 0.398275
internal_count=300 176 138 49 89 124 47 73 53 42 51
is_linear=0
shrinkage=0.05


Tree=46
num_leaves=11
num_cat=0
split_feature=2 0 2 3 2 3 2 2 3 2
split_gain=0.927851 0.502213 0.195842 0.203743 0.0996915 0.0748039 0.173786 0.0387175 0.0282172 0.00382691
threshold=23.500000000000004 217.50000000000003 15.500000000000002 0.13768154975037997 30.500000000000004 0.088251284995318965 32.500000000000007 6.5000000000000009 0.14171087242570407 3.5000000000000004
decision_type=2 2 2 2 2 2 2 2 2 2
left_child=2 5 7 -4 -3 -2 -7 9 -9 -1
right_child=1 4 3 -5 -6 6 -8 8 -10 -11
leaf_value=-0.055731219369262223 -0.012308332984894796 0.027176846834587209 0.0097500645596898874 -0.027510398131665604 0.05489951655713507 -0.0079540309767718222 0.022162395677707246 -0.044758885583924941 -0.024959512363280176 -0.045685218964577584
leaf_weight=0.1979891002411025 0.61831844970583993 0.64746275078505255 0.67517063580453374 0.80348864570260048 0.64968418888747692 0.92219698242843129 0.99675393290817738 0.27015765965916216 0.5389170884154737 0.18188750010449439
leaf_count=27 20 19 24 33 30 34 30 24 35 24
internal_value=4.93268e-10 0.0157542 -0.022645 -0.0104969 0.0410619 0.00281594 0.00768924 -0.0377533 -0.0315707 -0.0509211
internal_weight=6.50203 3.83442 2.66761 1.47866 1.29715 2.53727 1.91895 1.18895 0.809075 0.379877
internal_count=300 133 167 57 49 84 64 110 59 51
is_linear=0
shrinkage=0.05


Tree=47
num_leaves=11
num_cat=0
split_feature=2 4 4 2 2 2 0 0 2 2
split_gain=0.854893 0.601497 0.282821 0.149917 0.114055 0.0581956 0.0498617 0.0208321 0.0117624 0.00540363
threshold=17.500000000000004 59.580000000000005 97.885000000000005 28.500000000000004 26.500000000000004 10.500000000000002 146.00000000000003 217.50000000000003 4.5000000000000009 7.5000000000000009
decision_type=2 2 2 2 2 2 2 2 2 2
left_child=5 -2 4 -4 -3 8 -6 -7 -1 -10
right_child=1 2 3 -5 6 7 -8 -9 9 -11
leaf_value=-0.054664027009296158 -0.032715997528138883 -0.0075061106647539193 0.018877892859230652 0.051594463646245162 0.0046310995026388581 -0.034526033082244882 0.021301522985615794 -0.0178891292906227 -0.035080970560650779 -0.046173887058410044
leaf_weight=0.21137152670416959 0.70122132543474425 0.828217291273177 0.68415233492851235 0.71723045175895095 0.73816096037626255 0.31902116909623146 1.1432860633358357 0.45871013216674328 0.23263837164267898 0.20788375055417418
leaf_count=31 38 33 18 31 24 25 32 23 29 16
internal_value=8.62592e-11 0.0100857 0.0173863 0.0356223 0.00795506 -0.0339494 0.0147611 -0.0247135 -0.0449681 -0.0403158
internal_weight=6.24189 4.81227 4.11105 1.40138 2.70966 1.42962 1.88145 0.777731 0.651894 0.440522
internal_count=300 176 138 49 89 124 56 48 76 45
is_linear=0
shrinkage=0.05


Tree=48
num_leaves=13
num_cat=0
split_feature=2 4 2 4 2 2 3 0 3 2 2 0
split_gain=0.816623 0.452439 0.166269 0.133841 0.106171 0.0673469 0.0590906 0.0451912 0.0226652 0.0146209 0.0115635 0.00467187
threshold=23.500000000000004 97.885000000000005 10.500000000000002 74.940000000000012 36.500000000000007 29.500000000000004 0.15414901358995717 146.00000000000003 0.16791734914506373 29.500000000000004 4.5000000000000009 241.00000000000003
decision_type=2 2 2 2 2 2 2 2 2 2 2 2
left_child=2 4 10 8 7 -3 -5 -2 -4 -9 -1 -12
right_child=1 5 3 6 -6 -7 -8 9 -10 -11 11 -13
leaf_value=-0.054285306458783246 -0.012715435465326282 0.03094352282006432 -0.03978935405822407 0.0074470789815309973 0.021776153802612254 0.057048083846010206 -0.015343504572161402 0.0090503614229791307 -0.021559944266671804 -0.0014863500284559824 -0.044596570083669879 -0.034071736177905231
leaf_weight=0.20173894462641362 0.62118680588901121 0.49288671649992455 0.39318570122122753 0.5649640019983051 0.64826787635684002 0.49541049916297197 0.57273618457838893 0.64155735354870536 0.30107979476451874 0.67628764268010855 0.22873001382686198 0.19560973811894655
leaf_count=31 28 14 28 19 23 27 25 20 19 21 29 16
internal_value=2.89853e-10 0.0152515 -0.0221856 -0.0145834 0.00425898 0.0440291 -0.00402606 -0.00159746 -0.0318839 0.00364316 -0.0444302 -0.0397449
internal_weight=6.03364 3.5756 2.45804 1.83197 2.5873 0.988297 1.1377 1.93903 0.694265 1.31784 0.626079 0.42434
internal_count=300 133 167 91 92 41 44 69 47 41 76 45
is_linear=0
shrinkage=0.05


Tree=49
num_leaves=12
num_cat=0
split_feature=2 4 4 2 2 2 4 0 0 3 3
split_gain=0.781568 0.515423 0.244069 0.136528 0.114508 0.0499119 0.0205116 0.0159132 0.0119707 0.00613318 0.00116128
threshold=17.500000000000004 59.580000000000005 97.885000000000005 28.500000000000004 30.500000000000004 9.5000000000000018 74.940000000000012 217.50000000000003 176.50000000000003 0.14947320054468613 0.16572367847494382
decision_type=2 2 2 2 2 2 2 2 2 2 2
left_child=5 -2 4 -4 6 8 -3 -7 -1 -6 -10
right_child=1 2 3 -5 9 7 -8 -9 10 -11 -12
leaf_value=-0.058989967175376835 -0.031175809680111539 -0.008659198084046851 0.018316185015225191 0.0508107863563389 0.015245188973261745 -0.034276011154919503 0.0039391986201236535 -0.020267290934859128 -0.04396796561432504 0.022186045934656354 -0.038287463641276276
leaf_weight=0.13339582982007392 0.65240809228271235 0.663910802453757 0.6454266235232351 0.64758390351198614 0.66078958474099614 0.35029077006038278 0.62933243066072464 0.48120889160782099 0.20655115292174742 0.61401779111474752 0.15940597909502685
leaf_count=22 38 26 18 31 23 29 21 25 30 19 18
internal_value=-2.71277e-10 0.00992879 0.0168743 0.0345906 0.00795413 -0.0336726 -0.00252843 -0.0261688 -0.0461675 0.0185883 -0.0414936
internal_weight=5.84432 4.51347 3.86106 1.29301 2.56805 1.33085 1.29324 0.8315 0.499353 1.27481 0.365957
internal_count=300 176 138 49 89 124 47 54 70 42 48
is_linear=0
shrinkage=0.05


Tree=50
num_leaves=11
num_cat=0
split_feature=2 0 2 7 2 3 2 2 0 2
split_gain=0.744847 0.402713 0.152226 0.108004 0.087746 0.0722863 0.142853 0.0473968 0.0133714 0.00842467
threshold=23.500000000000004 217.50000000000003 17.500000000000004 1.0000000180025095e-35 30.500000000000004 0.088251284995318965 32.500000000000007 9.5000000000000018 217.50000000000003 4.5000000000000009
decision_type=2 2 2 2 2 2 2 2 2 2
left_child=2 5 7 -4 -3 -2 -7 9 -9 -1
right_child=1 4 3 -5 -6 6 -8 8 -10 -11
leaf_value=-0.054189579041306557 -0.012653729063655767 0.026123580240221069 -0.02423658580562698 0.0083379232958966445 0.054392834601234001 -0.0070315998206551562 0.021930398357066956 -0.033515088645812353 -0.020468688985883447 -0.040560145753215628
leaf_weight=0.1844821088598112 0.55908478889614421 0.56593314837664344 0.49438478099182226 0.52434666408225894 0.53304241271689534 0.81695464672520735 0.88917302805930376 0.33870688383467495 0.46743889851495624 0.29417802288662642
leaf_count=31 20 19 27 16 30 34 30 29 25 39
internal_value=8.98627e-12 0.0149988 -0.0219049 -0.00747031 0.0398352 0.00294935 0.00806236 -0.0333502 -0.0259502 -0.0458131
internal_weight=5.66773 3.36419 2.30354 1.01873 1.09898 2.26521 1.70613 1.28481 0.806146 0.47866
internal_count=300 133 167 43 49 84 64 124 54 70
is_linear=0
shrinkage=0.05


Tree=51
num_leaves=12
num_cat=0
split_feature=2 0 2 3 3 2 2 2 4 2 2
split_gain=0.685264 0.381409 0.160843 0.111429 0.109748 0.117757 0.0726671 0.0352287 0.0266687 0.0123933 0.00317643
threshold=24.500000000000004 217.50000000000003 15.500000000000002 0.13768154975037997 0.088251284995318965 32.500000000000007 30.500000000000004 6.5000000000000009 97.885000000000005 12.500000000000002 3.5000000000000004
decision_type=2 2 2 2 2 2 2 2 2 2 2
left_child=2 4 7 -4 -2 -6 -3 10 9 -9 -1
right_child=1 6 3 -5 5 -7 -8 8 -10 -11 -12
leaf_value=-0.05466475399408674 -0.01725045206431795 0.027361845010716569 0.0049341124415537216 -0.02329471943603708 -0.0054109001288669247 0.021969804480934125 0.053944167639564958 -0.044663352820933408 -0.016313064471384798 -0.027736289660741043 -0.044455681242970654
leaf_weight=0.15640719386283342 0.50041732005775053 0.52559446031227686 0.69712386652827241 0.70122952898964286 0.71594011504203059 0.86968495976179838 0.50326565862633288 0.23184894351288676 0.25160735147073865 0.20264949754346162 0.14856106584193185
leaf_count=27 18 18 29 34 31 30 30 28 16 15 24
internal_value=-1.3483e-10 0.0154515 -0.0201429 -0.00922174 0.00316413 0.00960689 0.0403646 -0.0355521 -0.0292672 -0.0367686 -0.0496915
internal_weight=5.50433 3.1149 2.38943 1.39835 2.08604 1.58563 1.02886 0.991074 0.686106 0.434498 0.304968
internal_count=300 127 173 63 79 61 48 110 59 43 51
is_linear=0
shrinkage=0.05


Tree=52
num_leaves=12
num_cat=0
split_feature=2 0 2 0 3 2 2 0 2 2 2
split_gain=0.637693 0.30011 0.230741 0.243721 0.145982 0.0504169 0.0259395 0.0132953 0.00982396 0.00427651 0.00405295
threshold=28.500000000000004 217.50000000000003 17.500000000000004 146.00000000000003 0.12132622543610842 10.500000000000002 36.500000000000007 241.00000000000003 4.5000000000000009 32.500000000000007 7.5000000000000009
decision_type=2 2 2 2 2 2 2 2 2 2 2
left_child=2 6 5 -4 -5 8 9 -7 -1 -2 -10
right_child=1 -3 3 4 -6 7 -8 -9 10 -11 -12
leaf_value=-0.053473042070738414 0.00044869826730174663 0.047444533949286091 -0.03432822481672889 0.025393689798716996 -0.0072074866316703904 -0.029758842657862251 0.017339301706368583 -0.015626242989002444 -0.033823488720706292 0.0067434800729436811 -0.04439212157491472
leaf_weight=0.16782005672575928 0.52855186723172687 0.69476432004012156 0.48949570208787907 0.59689045278355457 0.8084837794303894 0.33875636092852801 0.5105924755334853 0.32710840739309788 0.19077947619371116 0.5511876312084496 0.17294999025762081
leaf_count=31 21 37 25 22 32 30 20 18 29 19 16
internal_value=-3.40973e-11 0.0200299 -0.0148014 -0.00394402 0.00663888 -0.0319829 0.00805329 -0.0228162 -0.0434659 0.00366207 -0.0388488
internal_weight=5.37738 2.2851 3.09228 1.89487 1.40537 1.19741 1.59033 0.665865 0.53155 1.07974 0.363729
internal_count=300 97 203 79 54 124 60 48 76 40 45
is_linear=0
shrinkage=0.05


Tree=53
num_leaves=13
num_cat=0
split_feature=2 1 2 0 4 2 4 2 2 3 1 1
split_gain=0.877959 0.409327 0.241406 0.205174 0.115725 0.102255 0.0628256 0.0514109 0.0463296 0.00511362 0.00334846 0.00238877
threshold=28.500000000000004 0.53000000000000014 16.500000000000004 176.50000000000003 97.885000000000005 32.500000000000007 70.560000000000016 9.5000000000000018 34.500000000000007 0.18291643969194196 0.39500000000000007 0.39500000000000007
decision_type=2 2 2 2 2 2 2 2 2 2 2 2
left_child=1 2 7 8 6 -5 -4 9 -2 11 -9 -1
right_child=3 -3 4 5 -6 -7 -8 10 -10 -11 -12 -13
leaf_value=-0.043004056960576506 -0.0037999816989300289 -0.066109658791806289 -0.024544531778850496 0.021398606620185712 0.017467620689071192 0.050150298460121957 -0.00018181264025571658 -0.024823324060459173 0.017058126453086415 -0.03642660232300813 -0.017185014337502299 -0.052603114056598059
leaf_weight=0.11317818466341201 0.50286315986886643 0.37772590084932733 0.41936424979940035 0.5664431541226802 0.63574077561497677 0.68105853023007512 0.71714268904179335 0.29307506431359798 0.56573459086939692 0.13108973298221827 0.28109324350953102 0.15166377520654351
leaf_count=22 21 17 30 21 22 32 27 22 23 19 20 24
internal_value=-4.6698e-10 -0.0173124 -0.0105911 0.0233219 0.00038448 0.0370952 -0.00917151 -0.0306422 0.00724267 -0.0445033 -0.0210839 -0.048501
internal_weight=5.43617 3.12007 2.74235 2.3161 1.77225 1.2475 1.13651 0.9701 1.0686 0.395932 0.574168 0.264842
internal_count=300 203 186 97 79 53 57 107 44 65 42 46
is_linear=0
shrinkage=0.05


Tree=54
num_leaves=12
num_cat=0
split_feature=2 4 2 2 0 3 2 2 3 2 2
split_gain=0.529916 0.370979 0.23592 0.133658 0.116179 0.0752463 0.0652971 0.0488408 0.0255021 0.00958702 0.00322267
threshold=23.500000000000004 97.885000000000005 36.500000000000007 10.500000000000002 217.50000000000003 0.088251284995318965 31.500000000000004 29.500000000000004 0.16791734914506373 4.5000000000000009 7.5000000000000009
decision_type=2 2 2 2 2 2 2 2 2 2 2
left_child=3 2 5 9 8 -2 -7 -3 -5 -1 -11
right_child=1 7 -4 4 -6 6 -8 -9 -10 10 -12
leaf_value=-0.052673045155116449 -0.021483493644385825 0.031093778244643905 0.030345395767071993 -0.034045803364348155 0.00066257826042519577 -0.0080961118143284081 0.015814169441460836 0.056289361163188882 -0.015290178758353389 -0.033034846232499103 -0.042823016735924542
leaf_weight=0.15588991012191433 0.54633891861885864 0.40532321808859695 0.59480781015008677 0.45751045434735693 0.80510281631723046 0.76360119180753805 0.45608500903472304 0.36604523495770991 0.30013572634197772 0.17722654045792297 0.16001798887737095
leaf_count=31 17 14 23 33 35 33 19 27 23 29 16
internal_value=6.57041e-11 0.0129463 0.00311026 -0.019724 -0.0125625 -0.00606269 0.000844812 0.0430501 -0.0266159 -0.0424191 -0.0376792
internal_weight=5.18808 3.1322 2.36083 2.05588 1.56275 1.76603 1.21969 0.771368 0.757646 0.493134 0.337245
internal_count=300 133 92 167 91 69 52 41 56 76 45
is_linear=0
shrinkage=0.05


Tree=55
num_leaves=11
num_cat=0
split_feature=4 2 4 2 2 2 4 4 0 3
split_gain=0.567573 0.488354 0.197595 0.0866954 0.0848819 0.0715289 0.0589634 0.043707 0.0185757 0.00307877
threshold=59.580000000000005 17.500000000000004 97.885000000000005 26.500000000000004 28.500000000000004 6.5000000000000009 72.180000000000021 97.885000000000005 197.50000000000003 0.14406520174189408
decision_type=2 2 2 2 2 2 2 2 2 2
left_child=8 5 3 -3 -4 9 -5 -7 -1 -2
right_child=1 2 4 6 -6 7 -8 -9 -10 -11
leaf_value=-0.03247313963298299 -0.042552107494785191 -0.0066617205829129491 0.020595989503945422 0.026855422702075023 0.049264465934809959 -0.02691664795946784 0.0067507352731804512 -0.0031282937654585961 -0.048544587305555081 -0.054196799016396624
leaf_weight=0.33867483783978958 0.11777399084530749 0.69787626480683762 0.53673448832705595 0.5981989544816313 0.49752744752913713 0.43259860598482192 0.93428009655326605 0.34876143699511886 0.38325491786235943 0.10957210964988917
leaf_count=30 21 33 18 23 31 38 33 22 30 21
internal_value=-5.41846e-11 0.00692735 0.0163229 0.00794623 0.0343868 -0.0234807 0.0145985 -0.0162987 -0.0410051 -0.0481644
internal_weight=4.99525 4.27332 3.26462 2.23036 1.03426 1.00871 1.53248 0.78136 0.72193 0.227346
internal_count=300 240 138 89 49 102 56 60 60 42
is_linear=0
shrinkage=0.05


Tree=56
num_leaves=11
num_cat=0
split_feature=2 4 4 2 2 2 1 3 2 1
split_gain=0.533594 0.416853 0.181745 0.0842078 0.080831 0.0402789 0.0397044 0.013987 0.00575361 0.00428878
threshold=17.500000000000004 59.580000000000005 97.885000000000005 28.500000000000004 26.500000000000004 9.5000000000000018 0.50500000000000012 0.18434715063484045 3.5000000000000004 0.45000000000000001
decision_type=2 2 2 2 2 2 2 2 2 2
left_child=5 -2 4 -4 -3 8 -6 -7 -1 -10
right_child=1 2 3 -5 6 7 -8 -9 9 -11
leaf_value=-0.053056577986227885 -0.031604390832640765 -0.0065633065943177058 0.019684593524465402 0.048725592618640401 0.020691019949722715 -0.017757532439860044 0.0038082958231859853 -0.03214663089006467 -0.033847111647305965 -0.047006073265600801
leaf_weight=0.12685500131919958 0.54041810357011888 0.67696866951882917 0.52354992367327191 0.47706663189455867 0.91918666101992108 0.38754204253200442 0.56067438842728734 0.29933341383002698 0.13301622378639877 0.11584773135837168
leaf_count=27 38 33 18 31 32 32 24 22 23 20
internal_value=4.24517e-10 0.00897345 0.0159186 0.0335305 0.00774793 -0.0312279 0.0142947 -0.0240282 -0.0443902 -0.0399727
internal_weight=4.76046 3.69786 3.15745 1.00062 2.15683 1.06259 1.47986 0.686875 0.375719 0.248864
internal_count=300 176 138 49 89 124 56 54 70 43
is_linear=0
shrinkage=0.05


Tree=57
num_leaves=12
num_cat=0
split_feature=2 4 2 2 0 0 3 2 2 2 3
split_gain=0.524912 0.298044 0.108647 0.082487 0.0728339 0.0214476 0.020271 0.0185782 0.00753358 0.00331928 0.000464456
threshold=23.500000000000004 97.885000000000005 10.500000000000002 36.500000000000007 217.50000000000003 146.00000000000003 0.16791734914506373 29.500000000000004 4.5000000000000009 7.5000000000000009 0.11268066215863036
decision_type=2 2 2 2 2 2 2 2 2 2 2
left_child=2 3 8 5 6 -2 -4 -7 -1 -10 -3
right_child=1 10 4 -5 -6 7 -8 -9 9 -11 -12
leaf_value=-0.051795571165542946 -0.010080124639984176 0.043841686310919538 -0.032277053432372825 0.022049853407399157 -0.0027651742549362601 0.0093642640245084237 -0.014845735546939076 -0.003802861428303315 -0.032662838108190588 -0.043102958568373387 0.041225993744424289
leaf_weight=0.13701544768991869 0.48064436623826701 0.3010561168193816 0.41760724736377575 0.49982002656906832 0.73829668760299683 0.52386106271296717 0.27768637659028172 0.54826943948864937 0.15838202752638608 0.14660492516122758 0.3889978916849941
leaf_count=31 28 16 33 23 35 20 23 21 29 16 25
internal_value=3.09267e-10 0.0139399 -0.0203841 0.00438303 -0.013702 -0.00130371 -0.0253153 0.00263082 -0.0420566 -0.0376813 0.0423672
internal_weight=4.61824 2.74265 1.87559 2.05259 1.43359 1.55277 0.695294 1.07213 0.442002 0.304987 0.690054
internal_count=300 133 167 92 91 69 56 41 76 45 41
is_linear=0
shrinkage=0.05


Tree=58
num_leaves=12
num_cat=0
split_feature=2 4 4 2 2 2 3 3 3 2 1
split_gain=0.495934 0.361414 0.150548 0.082536 0.0777109 0.0334956 0.012411 0.0120999 0.00624135 0.00529182 0.00335013
threshold=17.500000000000004 59.580000000000005 97.885000000000005 28.500000000000004 30.500000000000004 9.5000000000000018 0.16904762169908247 0.11162802970507471 0.16572367847494382 3.5000000000000004 0.45000000000000001
decision_type=2 2 2 2 2 2 2 2 2 2 2
left_child=5 -2 4 -4 7 9 -7 -3 -6 -1 -11
right_child=1 2 3 -5 8 6 -8 -9 -10 10 -12
leaf_value=-0.052236316564825851 -0.029858544056219329 0.0042971633303073038 0.018153780859656684 0.047843631490686829 0.01433335779247886 -0.016466217554682635 -0.030385404510929016 -0.0065082256499490801 0.022283542976098882 -0.0336027636668264 -0.045659052450516623
leaf_weight=0.11668625354650408 0.51345274783670936 0.47541227471083469 0.49755034176632751 0.44205434643663466 0.54659521719440807 0.28274490800686181 0.36934721795842052 0.56937177246436477 0.45019735116511583 0.12454788596369326 0.10722733469447121
leaf_count=27 38 18 18 31 24 27 27 29 18 23 20
internal_value=-1.91077e-10 0.00888643 0.0155595 0.0321219 0.00793694 -0.0310376 -0.0243501 -0.00159141 0.017924 -0.0435523 -0.0391804
internal_weight=4.49519 3.49463 2.98118 0.939605 2.04158 1.00055 0.652092 1.04478 0.996793 0.348461 0.231775
internal_count=300 176 138 49 89 124 54 47 42 70 43
is_linear=0
shrinkage=0.05


Tree=59
num_leaves=11
num_cat=0
split_feature=2 4 2 3 2 0 1 3 3 3
split_gain=0.476064 0.265836 0.0982004 0.0964256 0.0646991 0.0334874 0.0253598 0.0321763 0.0104792 0.000314753
threshold=23.500000000000004 97.885000000000005 17.500000000000004 0.13768154975037997 33.500000000000007 176.50000000000003 0.34500000000000003 0.18434715063484045 0.14947320054468613 0.11268066215863036
decision_type=2 2 2 2 2 2 2 2 2 2
left_child=2 4 5 -4 8 -1 -7 -8 -2 -3
right_child=1 9 3 -5 -6 6 7 -9 -10 -11
leaf_value=-0.04750421380108092 -0.0065223415757649852 0.042803705538912336 0.011497647689243403 -0.023110643850599921 0.016279462936853367 -0.037988160506849458 -0.0063514938870666672 -0.032271258982301348 0.0028784552465464814 0.040575042177235246
leaf_weight=0.22592246643034719 0.70631886273622535 0.28245682828128327 0.37547622388228774 0.43379294406622648 0.72639870038256038 0.26346093617030419 0.25167758879251778 0.22838474076706916 0.51083680521696806 0.36077473300974816
leaf_count=39 30 16 18 25 35 32 34 19 27 25
internal_value=-1.20835e-10 0.0136917 -0.0199119 -0.00705345 0.00447065 -0.0306458 -0.0255233 -0.0186826 -0.00257685 0.0415537
internal_weight=4.3655 2.58679 1.77871 0.809269 1.94355 0.969446 0.743523 0.480062 1.21716 0.643232
internal_count=300 133 167 43 92 124 85 53 57 41
is_linear=0
shrinkage=0.05


Tree=60
num_leaves=11
num_cat=0
split_feature=2 0 2 0 2 2 3 3 2 0
split_gain=0.423128 0.263502 0.102089 0.0802892 0.0670727 0.0433895 0.0237964 0.0197026 0.00790564 0.00307969
threshold=23.500000000000004 217.50000000000003 10.500000000000002 217.50000000000003 30.500000000000004 33.500000000000007 0.16791734914506373 0.14947320054468613 3.5000000000000004 241.00000000000003
decision_type=2 2 2 2 2 2 2 2 2 2
left_child=2 5 8 6 -3 7 -4 -2 -1 -10
right_child=1 4 3 -5 -6 -7 -8 -9 9 -11
leaf_value=-0.053019461583147943 -0.0097941219624373896 0.023944211783751571 -0.033474713730216286 -0.000589461090200722 0.053654993786638572 0.012449929036373743 -0.013687666537248476 0.0037564521051484099 -0.041814843505333189 -0.031485330385427543
leaf_weight=0.10681413966813114 0.60666175559163116 0.41596584953367699 0.37067523831501581 0.68220301670953631 0.34961640380788594 0.65983591927215446 0.2574996689800173 0.48089940054342151 0.15859191282652318 0.13239921175409108
leaf_count=27 26 19 33 35 30 32 23 26 33 16
internal_value=1.75428e-10 0.0130516 -0.0192007 -0.0124658 0.0375122 0.00233471 -0.0253637 -0.00380231 -0.0413855 -0.037115
internal_weight=4.22116 2.51298 1.70818 1.31038 0.765582 1.7474 0.628175 1.08756 0.397805 0.290991
internal_count=300 133 167 91 49 84 56 52 76 49
is_linear=0
shrinkage=0.05


Tree=61
num_leaves=11
num_cat=0
split_feature=2 4 4 2 2 4 2 0 2 1
split_gain=0.414118 0.352654 0.129244 0.0706212 0.0700336 0.0361775 0.0333968 0.0150406 0.00573007 0.00257178
threshold=17.500000000000004 59.580000000000005 97.885000000000005 26.500000000000004 28.500000000000004 74.940000000000012 9.5000000000000018 217.50000000000003 3.5000000000000004 0.45000000000000001
decision_type=2 2 2 2 2 2 2 2 2 2
left_child=6 -2 3 -3 -4 -5 8 -8 -1 -10
right_child=1 2 4 5 -6 -7 7 -9 9 -11
leaf_value=-0.052663485984034634 -0.031206138907703202 -0.0062490925969699851 0.018215381111107192 0.0081794337832506916 0.046958613244736325 0.025562760233768224 -0.032303028766557815 -0.016193103279212709 -0.033097345593122468 -0.044172946342790759
leaf_weight=0.10235150292282913 0.47649298631586168 0.58974189870059524 0.45637981127947558 0.80243946146219947 0.39563664491288364 0.4773531686514616 0.24573554075323045 0.35301920073106885 0.1128116762265563 0.097895979444729164
leaf_count=27 38 33 18 37 31 19 29 25 23 20
internal_value=2.26629e-10 0.0084748 0.0154222 0.00806651 0.0315624 0.0146633 -0.029724 -0.0228048 -0.0429577 -0.0382431
internal_weight=4.10986 3.19804 2.72155 1.86953 0.852016 1.27979 0.911814 0.598755 0.313059 0.210708
internal_count=300 176 138 89 49 56 124 54 70 43
is_linear=0
shrinkage=0.05


Tree=62
num_leaves=11
num_cat=0
split_feature=2 4 4 2 2 2 4 4 2 2
split_gain=0.402876 0.30606 0.121243 0.0680519 0.0674018 0.0314984 0.0284486 0.0174876 0.00673996 0.00198254
threshold=17.500000000000004 59.580000000000005 97.885000000000005 28.500000000000004 26.500000000000004 6.5000000000000009 74.940000000000012 97.885000000000005 13.500000000000002 3.5000000000000004
decision_type=2 2 2 2 2 2 2 2 2 2
left_child=5 -2 4 -4 -3 9 -6 8 -7 -1
right_child=1 2 3 -5 6 7 -8 -9 -10 -11
leaf_value=-0.052293984068228064 -0.02911191469361625 -0.0063383665747830178 0.017640301799167889 0.046429327979995487 0.0085398049769945042 -0.03751301378178689 0.024158596215030664 -0.014300023834467962 -0.024982311354578037 -0.042318484839815027
leaf_weight=0.098434418847319072 0.46143852127715979 0.57572743482887778 0.44560819072648872 0.38059045665431768 0.78501612553372957 0.20050541055388749 0.46379283396527171 0.25548852211795747 0.23087924619903788 0.10082308316486888
leaf_count=27 38 33 18 31 37 32 19 22 19 24
internal_value=1.70682e-10 0.00846905 0.0150111 0.030902 0.0078153 -0.0297441 0.0143404 -0.0246668 -0.0308065 -0.0472464
internal_weight=3.9983 3.11217 2.65074 0.826199 1.82454 0.886131 1.24881 0.686873 0.431385 0.199258
internal_count=300 176 138 49 89 124 56 73 51 51
is_linear=0
shrinkage=0.05


Tree=63
num_leaves=12
num_cat=0
split_feature=2 0 2 2 4 2 3 3 3 2 2
split_gain=0.392171 0.220431 0.0863431 0.0591443 0.0569061 0.043684 0.0383425 0.020672 0.0111613 0.00648733 0.00265577
threshold=23.500000000000004 217.50000000000003 10.500000000000002 30.500000000000004 74.940000000000012 33.500000000000007 0.15414901358995717 0.14947320054468613 0.16791734914506373 4.5000000000000009 7.5000000000000009
decision_type=2 2 2 2 2 2 2 2 2 2 2
left_child=2 5 9 -3 8 7 -6 -2 -4 -1 -11
right_child=1 3 4 -5 6 -7 -8 -9 -10 10 -12
leaf_value=-0.051016260306275513 -0.0096738420368306394 0.023641266090503047 -0.033981390552175569 0.05308263794078686 0.0067547872731693291 0.013608233670358691 -0.015617074970726012 0.0047072468307801591 -0.01816711048764098 -0.031416945292291873 -0.041675316225563593
leaf_weight=0.10745974589372087 0.56574884126894198 0.38248624466359604 0.25045723246876128 0.30790459748823196 0.37864383636042476 0.61060698516666878 0.38754214509390295 0.44756959099322557 0.20120222959667444 0.13119750129408203 0.12153958808630705
leaf_count=31 26 19 28 30 19 32 25 26 19 29 16
internal_value=3.3722e-10 0.0131054 -0.01922 0.0367717 -0.0128594 0.00304394 -0.00456105 -0.0033219 -0.0269366 -0.0407256 -0.0363501
internal_weight=3.89236 2.31432 1.57804 0.690391 1.21785 1.62393 0.766186 1.01332 0.451659 0.360197 0.252737
internal_count=300 133 167 49 91 84 44 52 47 76 45
is_linear=0
shrinkage=0.05


Tree=64
num_leaves=11
num_cat=0
split_feature=2 4 4 2 2 3 2 0 2 0
split_gain=0.373013 0.277822 0.111355 0.0628593 0.0609214 0.029092 0.02813 0.0107543 0.00462621 0.00418494
threshold=17.500000000000004 59.580000000000005 97.885000000000005 26.500000000000004 28.500000000000004 0.099722713878356975 9.5000000000000018 217.50000000000003 3.5000000000000004 241.00000000000003
decision_type=2 2 2 2 2 2 2 2 2 2
left_child=6 -2 3 -3 -4 -5 8 -8 -1 -10
right_child=1 2 4 5 -6 -7 7 -9 9 -11
leaf_value=-0.051573906735113778 -0.028472932647323201 -0.0061773576979154395 0.017724740431779337 0.0034698775360977063 0.045864986109390521 0.019944091765583483 -0.031305849708727171 -0.017132688538013124 -0.044403130430335773 -0.029514998707685182
leaf_weight=0.091012486343970855 0.43620542180724475 0.55407239519991014 0.42352553969249118 0.41028097318485357 0.35233868868090212 0.77264854963868856 0.22596625913865864 0.32828434929251671 0.1078119121666532 0.083958082133904099
leaf_count=27 38 33 18 20 31 36 29 25 29 14
internal_value=-3.07721e-10 0.00836112 0.0147551 0.0077206 0.0305039 0.0142303 -0.0294583 -0.022911 -0.0422907 -0.037885
internal_weight=3.7861 2.94907 2.51287 1.737 0.775864 1.18293 0.837033 0.554251 0.282782 0.19177
internal_count=300 176 138 89 49 56 124 54 70 43
is_linear=0
shrinkage=0.05


Tree=65
num_leaves=11
num_cat=0
split_feature=2 4 0 2 2 2 4 4 2 3
split_gain=0.36305 0.243445 0.106767 0.105151 0.0509201 0.0263209 0.0192254 0.0151912 0.00479306 0.00177994
threshold=17.500000000000004 59.580000000000005 217.50000000000003 29.500000000000004 26.500000000000004 6.5000000000000009 72.180000000000021 97.885000000000005 13.500000000000002 0.14036794639855352
decision_type=2 2 2 2 2 2 2 2 2 2
left_child=5 -2 4 -4 -3 9 -6 8 -7 -1
right_child=1 2 3 -5 6 7 -8 -9 -10 -11
leaf_value=-0.041738842223057931 -0.026531625072359406 -0.0088984090731943789 0.015844020340999118 0.050951500868797989 0.019705284285772635 -0.036573625943092797 0.0060753475309866236 -0.014570364276031764 -0.025592624224253513 -0.051720143466228753
leaf_weight=0.096893294015899634 0.42591681028716299 0.4143387628719214 0.65214179991744448 0.31693335250020027 0.44397346861660458 0.18226021918235347 0.62003170279785991 0.23478829488158226 0.21851171925663948 0.082863580493722111
leaf_count=26 38 27 28 33 23 32 27 22 19 25
internal_value=5.2079e-10 0.00835582 0.0144272 0.0273258 0.00597194 -0.0294475 0.0117627 -0.0246698 -0.0305865 -0.04634
internal_weight=3.68865 2.87334 2.44742 0.969075 1.47834 0.815317 1.06401 0.63556 0.400772 0.179757
internal_count=300 176 138 61 77 124 50 73 51 51
is_linear=0
shrinkage=0.05


Tree=66
num_leaves=12
num_cat=0
split_feature=2 4 2 2 0 4 4 3 2 2 3
split_gain=0.356102 0.196514 0.074491 0.0576581 0.0454408 0.020835 0.0655212 0.0181752 0.00543799 0.0022974 0.000111468
threshold=23.500000000000004 97.885000000000005 10.500000000000002 36.500000000000007 217.50000000000003 74.940000000000012 70.560000000000016 0.1821083897859663 4.5000000000000009 7.5000000000000009 0.11268066215863036
decision_type=2 2 2 2 2 2 2 2 2 2 2
left_child=2 3 8 5 7 6 -2 -4 -1 -10 -3
right_child=1 10 4 -5 -6 -7 -8 -9 9 -11 -12
leaf_value=-0.04999310303535992 -0.022335256506365139 0.040968860264505587 -0.030388188886821529 0.021535804481846631 -0.0034299399421305735 0.0088310450103194302 0.0061097202114339336 -0.011245756840366314 -0.031022077083867068 -0.040997756359275384 0.039479870986782385
leaf_weight=0.09640772387501817 0.33429028745740674 0.22631071344949294 0.34366993163712301 0.38116322318091977 0.59548753080889583 0.39201850211247802 0.51330416835844517 0.19399828289169818 0.11909740755800158 0.11198320519179106 0.28270392643753439
leaf_count=31 29 16 37 23 35 17 23 19 29 16 25
internal_value=1.63031e-10 0.0130403 -0.0190143 0.00452886 -0.0129441 -0.000700526 -0.00510895 -0.0234813 -0.040018 -0.0358564 0.0401419
internal_weight=3.59043 2.12979 1.46064 1.62078 1.13316 1.23961 0.847594 0.537668 0.327488 0.231081 0.509015
internal_count=300 133 167 92 91 69 52 56 76 45 41
is_linear=0
shrinkage=0.05


Tree=67
num_leaves=12
num_cat=0
split_feature=2 4 4 2 3 2 4 4 0 3 2
split_gain=0.371991 0.175582 0.0963859 0.0643965 0.0581052 0.0199876 0.0176365 0.010585 0.00490201 0.00206762 0.00168333
threshold=17.500000000000004 59.580000000000005 97.885000000000005 30.500000000000004 0.16301867179536308 6.5000000000000009 97.885000000000005 74.940000000000012 197.50000000000003 0.14947320054468613 3.5000000000000004
decision_type=2 2 2 2 2 2 2 2 2 2 2
left_child=5 -2 3 7 -4 10 8 -3 -7 -5 -1
right_child=1 2 4 9 -6 6 -8 -9 -10 -11 -12
leaf_value=-0.05074576440608175 -0.021305406165058851 -0.0077073816235661971 0.0417635636370291 0.015123419956951793 0.012915364892336544 -0.027088329392047084 -0.014922017275725261 0.0035922198061042313 -0.038245470332599424 0.020278941609749877 -0.040741591980046753
leaf_weight=0.082082695822464635 0.41380997793749008 0.44110698462463938 0.40606006747111667 0.40389995044097304 0.30615163210313767 0.20172923995414749 0.22239756886847317 0.39093561912886798 0.19229040842037648 0.37506938865408301 0.086211101937806234
leaf_count=27 38 26 28 23 21 32 22 21 19 19 24
internal_value=-2.25571e-10 0.00870106 0.0140458 0.00727425 0.0293629 -0.0303489 -0.0261793 -0.00239826 -0.0325333 0.0176058 -0.045621
internal_weight=3.52174 2.73703 2.32322 1.61101 0.712212 0.784711 0.616417 0.832043 0.39402 0.778969 0.168294
internal_count=300 176 138 89 49 124 73 47 51 42 51
is_linear=0
shrinkage=0.05


Tree=68
num_leaves=12
num_cat=0
split_feature=2 4 3 3 3 3 2 0 2 2 4
split_gain=0.330676 0.178563 0.102618 0.0875166 0.086051 0.0636593 0.0539126 0.0226759 0.0355354 0.00860548 0.0034443
threshold=24.500000000000004 74.940000000000012 0.078776943552239312 0.17645820283896854 0.071973240776184569 0.14752423761896932 10.500000000000002 241.00000000000003 19.500000000000004 6.5000000000000009 97.885000000000005
decision_type=2 2 2 2 2 2 2 2 2 2 2
left_child=4 3 -3 -2 -1 -4 9 8 -8 10 -6
right_child=1 2 5 -5 6 -7 7 -9 -10 -11 -12
leaf_value=0.012655040885443954 -0.015533931975887434 0.0031677414432640231 0.054246093367605587 0.014052372672870884 -0.057183520095621457 0.022829773373659525 -0.033549104030673023 -0.0068086251446923089 -0.010126345720584958 -0.032342486615974435 -0.042038832237843181
leaf_weight=0.20404703140957314 0.50198415247723438 0.25928911147639155 0.36433847970329225 0.49782319529913366 0.075049414270324522 0.28927064320305362 0.34080279740737729 0.36244578007608652 0.30851885164156556 0.13895750197116286 0.075119599176105112
leaf_count=21 34 13 25 30 28 25 36 24 26 22 16
internal_value=1.81199e-10 0.0137957 0.0297835 -0.000802345 -0.0175336 0.040342 -0.0222688 -0.0168275 -0.02242 -0.0413098 -0.0496076
internal_weight=3.41765 1.91271 0.912898 0.999807 1.50494 0.653609 1.30089 1.01177 0.649322 0.289127 0.150169
internal_count=300 127 63 64 173 50 152 86 62 66 44
is_linear=0
shrinkage=0.05


Tree=69
num_leaves=12
num_cat=0
split_feature=2 4 4 2 2 2 3 4 3 2 1
split_gain=0.316627 0.183685 0.0996602 0.0519592 0.0498508 0.0222674 0.00962738 0.00769668 0.00441856 0.00342242 0.00302729
threshold=17.500000000000004 59.580000000000005 97.885000000000005 29.500000000000004 28.500000000000004 9.5000000000000018 0.16904762169908247 74.940000000000012 0.14036794639855352 3.5000000000000004 0.45000000000000001
decision_type=2 2 2 2 2 2 2 2 2 2 2
left_child=5 -2 3 7 -4 9 -7 -3 -5 -1 -11
right_child=1 2 4 8 -6 6 -8 -9 -10 10 -12
leaf_value=-0.050212128413011398 -0.02333791920289132 -0.0072020420691619336 0.017570427014343061 0.011945005017256852 0.044956845503337249 -0.014659015761763029 -0.028761239875015054 0.0028811829464872106 0.019587310017824294 -0.030960836672061776 -0.044603211886223473
leaf_weight=0.075933961314149534 0.39054216258227858 0.40170979849062882 0.36809461168013502 0.35317769553512335 0.30290216597495601 0.20759719022316858 0.29021022107917815 0.35783945606090128 0.40720106428489089 0.086642025038599968 0.07662958069704473
leaf_count=27 38 25 18 22 31 27 27 20 22 23 20
internal_value=-7.25736e-11 0.00825237 0.0138835 0.00679805 0.0299332 -0.0289048 -0.0228803 -0.00245162 0.0160376 -0.0414423 -0.0373637
internal_weight=3.31848 2.58147 2.19092 1.51993 0.670997 0.737013 0.497807 0.759549 0.760379 0.239206 0.163272
internal_count=300 176 138 89 49 124 54 45 44 70 43
is_linear=0
shrinkage=0.05


Tree=70
num_leaves=12
num_cat=0
split_feature=2 0 2 3 2 2 2 3 2 0 0
split_gain=0.295261 0.169772 0.0739934 0.0519516 0.0422716 0.030283 0.0189072 0.0119439 0.00449148 0.00406287 0.00233664
threshold=24.500000000000004 217.50000000000003 16.500000000000004 0.13768154975037997 30.500000000000004 33.500000000000007 10.500000000000002 0.14947320054468613 3.5000000000000004 241.00000000000003 241.00000000000003
decision_type=2 2 2 2 2 2 2 2 2 2 2
left_child=2 5 6 -4 -3 7 8 -2 -1 -8 -10
right_child=1 4 3 -5 -6 -7 9 -9 10 -11 -12
leaf_value=-0.049748497526169271 -0.0089725483660198901 0.024435792608250708 0.0063146586298122535 -0.019361503693752096 0.052459674974416226 0.012740561189965933 -0.027261260410337964 0.0036782591807814459 -0.040302246372321118 -0.016529705868677112 -0.029880769620525202
leaf_weight=0.073226510445238313 0.3989240890368817 0.30730294832028437 0.38849787320941687 0.39968335931189358 0.23939314932795241 0.50979543942958117 0.17338943359209225 0.35050093289464712 0.1147938919311855 0.17949949181638658 0.1012068105628714
leaf_count=27 22 18 25 31 30 32 26 25 33 15 16
internal_value=-5.38466e-11 0.0134406 -0.0169703 -0.00670561 0.0367072 0.00333933 -0.02957 -0.00305585 -0.0390471 -0.0218026 -0.0354193
internal_weight=3.23621 1.80592 1.4303 0.788181 0.546696 1.25922 0.642116 0.749425 0.289227 0.352889 0.216001
internal_count=300 127 173 56 48 79 117 47 76 41 49
is_linear=0
shrinkage=0.05


Tree=71
num_leaves=13
num_cat=0
split_feature=2 4 3 2 3 0 3 3 2 3 4 0
